2212 100
</s> 0.004003 0.004419 -0.003830 -0.003278 0.001367 0.003021 0.000941 0.000211 -0.003604 0.002218 -0.004356 0.001250 -0.000751 -0.000957 -0.003316 -0.001882 0.002579 0.003025 0.002969 0.001597 0.001545 -0.003803 -0.004096 0.004970 0.003801 0.003090 -0.000604 0.004016 -0.000495 0.000735 -0.000149 -0.002983 0.001312 -0.001337 -0.003825 0.004754 0.004379 -0.001095 -0.000226 0.000509 -0.003638 -0.004007 0.004555 0.000063 -0.002582 -0.003042 -0.003076 0.001697 0.000201 0.001331 -0.004214 -0.003808 -0.000130 0.001144 0.002550 -0.003170 0.004080 0.000927 0.001120 -0.000608 0.002986 -0.002288 -0.002097 0.002158 -0.000753 0.001031 0.001805 -0.004089 -0.001983 0.002914 0.004232 0.003932 -0.003047 -0.002108 -0.000909 0.002001 -0.003788 0.002998 0.002788 -0.001599 -0.001552 -0.002238 0.004229 0.003912 -0.001180 0.004215 0.004820 0.001815 0.004983 -0.003111 -0.001532 -0.002107 -0.002907 0.002815 0.001579 0.000425 -0.002194 0.001524 0.003059 0.000194 
the 0.699591 -0.745527 0.154136 -0.240986 -0.263771 -0.058427 0.240707 0.099616 -0.091763 -1.218021 0.400825 -0.289257 -0.442175 -0.166812 0.108767 0.065889 -0.413043 -0.666604 0.206559 -0.629200 -0.017309 -0.149458 -0.937354 -0.580037 -0.259185 -0.264719 -0.294317 0.409734 0.190273 0.013493 -0.162006 -0.306517 -0.260643 -0.743780 0.052745 0.727156 0.147182 -0.458896 -0.371958 -0.621364 -0.075508 0.530794 0.178447 0.555289 -1.345607 0.501527 -0.222304 -0.187079 -0.809012 0.162585 0.062746 0.526769 0.449743 -0.180889 -0.772165 1.056759 -0.912401 -0.175368 -1.151860 -0.398676 -0.206898 -0.688380 0.288484 -0.042709 0.150267 0.753379 -1.259119 0.111608 0.106889 -0.149984 -0.261947 -0.478571 -0.547166 0.220823 0.366980 -0.236518 0.483366 -0.423174 -0.035148 -0.336022 -0.816228 0.052192 -1.218140 -0.722177 -0.381908 -0.332781 -0.111608 -0.472292 0.302882 0.456858 0.127435 0.226132 -0.792224 0.302311 0.103431 0.483976 -0.149848 0.219374 0.640448 -0.388612 
of -0.141785 -0.617337 0.643556 -0.279812 -0.673896 -0.041939 1.458560 -0.182624 -0.157588 0.634024 0.846659 -0.615021 -0.375315 -0.318699 -0.349915 0.321532 0.728671 0.902663 0.558396 0.818570 -0.882875 0.745495 -0.565052 0.964341 -0.587223 0.888244 0.460936 -0.519075 -0.782088 1.608637 0.622827 -0.309607 1.083976 0.034649 -0.407507 -0.022243 -0.423597 -1.070369 -1.127220 -0.011494 0.467311 -0.764220 0.815235 -0.675523 0.122671 -0.158663 0.190705 0.371642 0.025835 -0.522409 0.611534 -0.745532 -0.832156 -0.057582 0.374028 -0.575604 -0.232352 -1.198041 1.149652 -0.186494 0.753517 0.422194 -0.136613 0.059201 1.497903 0.319896 0.849242 -0.068360 0.107944 -0.435217 -0.869694 0.944378 0.778747 -0.376782 1.379554 -1.105862 -0.335058 1.098762 -0.427525 0.216204 1.097756 0.667821 0.213812 0.823727 0.095209 -0.190092 -0.494228 -0.290640 0.367298 -1.426055 -0.252724 0.212616 0.730026 -0.736996 0.961368 -0.342146 0.264470 -0.437222 -0.051688 0.430154 
and -0.258509 0.287472 -0.146894 0.692296 0.268081 0.352739 0.059820 -0.520173 -0.316289 0.346751 -0.196923 0.218795 0.266087 -0.223154 -0.233058 -0.120467 0.109119 -0.354673 0.339883 -0.192355 -0.156043 -0.118130 0.243404 0.446536 -0.103466 0.186097 0.310470 0.410763 -0.211890 -0.415494 -0.129240 0.187972 0.422087 -0.061277 0.363220 -0.195466 -0.969700 0.419821 0.565525 -0.102841 0.000480 0.348184 -0.383724 -0.002053 0.727262 -0.537275 -0.134925 -0.014666 0.760010 0.015741 0.391523 -0.118355 -0.504667 -0.396193 -0.016904 -0.476780 -0.294645 0.267547 -0.051790 -0.625199 -0.113124 0.684541 -0.056454 -0.294077 0.620286 -0.454924 0.428782 0.300636 -0.063095 0.262406 0.119912 0.440831 -0.369398 -0.068569 -0.243598 -0.647117 -0.013288 -0.082944 -0.752980 -0.799126 0.511467 0.458604 -0.211625 -0.321828 0.105948 -0.300099 -0.118517 -0.396433 -0.401482 -0.144110 -0.640144 0.480488 -0.515910 0.346365 -0.524494 -0.138365 -0.379071 -0.643436 -0.536281 0.624459 
in -0.584648 -0.513354 -0.067023 0.571945 0.549043 -0.646767 0.466934 0.717903 -0.206537 1.296481 0.187194 0.277913 -0.189875 -0.240489 -0.961817 1.383205 0.176566 0.587834 0.639207 0.824699 -0.241617 0.811722 -0.104174 -0.643662 0.302174 -0.539657 0.016702 -0.283120 0.195092 -0.099741 -0.302194 -0.860378 0.165667 0.394490 -0.393552 -0.790069 -0.204868 0.089095 0.223327 -0.212106 0.120151 -0.281373 0.149665 -0.203424 -0.074351 -0.599468 0.279965 -0.174392 1.178175 0.079051 0.655952 -0.218739 0.946642 0.995585 -0.936672 -0.184723 0.567289 1.000015 0.525893 -0.828545 0.671403 0.099464 -0.315892 0.411428 0.225479 0.932007 0.890371 -0.217704 0.476545 0.575062 -0.081937 -0.066347 1.331872 0.081897 -0.120537 0.091996 -0.865866 0.188719 0.247919 0.805655 0.419206 -0.115655 -0.508361 -0.212313 -0.184364 0.494892 0.159331 -0.127772 -0.276198 -0.289511 0.683919 0.462967 -0.379437 0.072565 0.728718 0.114439 0.976754 0.444995 0.046218 -0.369466 
a 1.122999 0.514250 0.375469 0.673356 0.002770 -0.226721 -0.676812 -0.426963 0.134309 -1.891726 -0.098984 -0.114160 -1.781472 0.469332 0.025453 -0.190903 0.362642 -0.646209 -0.955442 -1.598525 -0.698262 -0.212657 0.250917 0.002838 0.909697 -0.110110 -0.263514 1.063861 0.230552 -0.078315 0.071224 -0.967736 -0.466377 -0.835909 0.694753 0.269286 0.620254 -0.241996 0.256120 -0.854896 -0.839090 -0.623596 0.527119 1.841637 -0.010724 0.645919 -0.460760 -0.824291 -0.356030 0.375721 -0.633658 -0.462825 0.915304 0.589407 0.004531 -0.139073 -0.475921 -0.554028 -1.308195 0.450368 -0.954566 -0.497076 -1.564902 0.562938 -0.514097 0.251669 0.701587 0.246500 -0.487399 -0.480402 0.774213 0.251650 0.118681 0.722209 1.487632 -0.520711 -0.123717 -0.136836 -0.343628 -0.515948 -0.041988 0.134668 0.178253 -0.006505 0.188060 0.935915 -0.088636 0.259437 -0.023716 0.891876 1.009454 -0.440801 -1.367968 -0.808084 1.009145 0.708333 -0.399809 0.181477 0.180576 -0.590137 
to -0.054009 -0.658437 -0.063439 -1.015106 -0.670362 -0.556673 -0.495991 -0.440797 -0.250863 1.063575 -0.085857 0.826710 -0.814545 0.755590 -0.136154 0.032400 0.045281 2.078669 -0.527869 0.666102 0.152704 -0.626218 -0.309835 0.975601 0.795219 1.246211 -0.155480 0.577554 -0.959443 0.568283 1.088080 1.453196 -0.709493 0.946887 -0.016428 0.320571 1.138878 1.087776 1.186458 0.826557 -0.415819 0.833227 -0.424097 -0.182459 -0.009987 0.858307 -0.182598 0.779283 -0.099877 -0.006939 0.666816 0.473737 -0.041695 0.818211 0.432851 0.473960 0.235819 -0.003711 -0.066830 -0.592910 0.084467 -0.218140 -0.530932 -0.543572 -0.331989 0.656056 -0.066370 -1.276425 -0.913704 0.606709 -0.107222 1.476652 -0.320567 -0.708511 -1.258853 0.460765 -0.770873 1.067845 -0.403372 0.377208 -0.569305 -0.455232 1.132165 0.765894 0.333583 -0.633991 0.433019 0.215110 1.231197 -0.167266 0.631586 0.171553 0.838058 -1.094460 -1.005027 0.044444 -0.045705 0.663163 0.318079 1.372136 
dddd 0.083850 0.071325 0.021295 -0.028348 -0.184872 0.917292 -0.614030 -0.133897 0.843563 -0.697554 1.463090 0.422772 -0.154441 0.455433 -0.270191 0.918788 0.095419 0.085617 1.383617 0.526644 0.849687 1.175591 1.022640 0.784608 0.846584 -0.581738 0.404169 0.217701 0.838340 0.195491 -0.688233 -0.224481 0.066165 0.212043 -0.775374 -0.332388 -0.102065 -0.486190 -0.878390 0.177259 -0.795553 0.389293 -0.175496 -0.419336 0.638657 0.710959 0.867771 0.594540 -1.116226 0.250986 -1.588033 0.484841 0.211915 1.006430 -0.621223 -0.110206 0.155201 -0.892942 -0.028307 -0.101314 -0.989333 -1.103122 0.790806 0.240515 -1.092294 -0.499592 0.577697 -0.543973 1.095300 0.869415 -0.880958 -0.568736 0.322187 0.129479 -1.179296 0.436948 -0.698672 -1.041213 1.096695 -0.620234 -0.612687 0.297296 0.130749 -1.542496 0.204064 1.355725 1.514039 1.002480 0.585543 0.143661 -0.024261 0.233503 -0.024442 0.153868 0.779917 -0.800859 -1.250939 0.854679 -1.437129 0.333905 
was 0.581366 -0.438953 1.679540 -1.023910 1.112590 -0.411258 0.586286 -1.570146 1.751162 0.455236 -1.240438 -0.492619 0.423357 0.999302 -1.186047 -0.705445 -0.819892 -1.580503 -0.042691 0.511297 -1.163156 -0.143954 0.858902 0.034214 0.206279 -0.727461 0.803497 -0.342532 1.053341 0.191008 -0.689895 -0.477569 -0.585371 -0.945680 1.175941 -0.025832 0.363868 -1.671898 -0.973704 -0.020281 -0.547467 -0.111515 -1.489810 -0.030447 -0.528227 -0.343112 -0.245504 0.041510 -0.148307 -0.357213 0.573604 -0.803458 -0.039181 -0.045041 -0.506366 0.454499 1.482829 0.243029 -0.176361 0.737215 -0.744998 -0.576903 -0.638037 -1.358950 -0.284400 0.682774 0.122670 -0.340542 -0.525450 0.270721 -0.119540 -1.369465 0.095398 -0.751743 0.202274 0.205837 -0.173264 -0.528171 -0.154766 -1.274170 0.179274 -0.186854 1.042843 0.158948 0.127733 0.925316 0.482134 1.340336 -0.862651 -0.381778 -0.263540 -0.904083 0.455420 0.687970 0.667604 0.512281 -0.206991 0.898931 0.631951 1.254475 
is 0.391091 -0.741550 1.485595 -0.226787 0.219222 -0.378264 1.029214 -0.839200 1.590020 0.586692 -1.192818 -0.405695 0.137695 -0.578530 -0.955303 0.492155 0.173596 -1.037618 -0.297341 0.571522 -1.039467 0.777548 0.927645 -0.885507 -0.201258 -1.107608 1.093521 0.324301 -0.108338 -0.402487 -0.492874 -0.770900 -0.408372 -0.694471 0.860357 -0.363499 -0.118775 -1.440163 -0.717353 -0.257609 -0.204789 -0.392138 -1.239326 0.262054 -0.881020 -0.159602 -1.128053 0.988680 -0.272950 -0.785943 1.307670 -0.805504 -0.866112 0.093259 1.087373 0.064896 1.242646 -0.212204 -0.445370 1.043900 -0.602209 -0.566195 -0.117666 -0.895669 0.786819 1.037255 0.363203 -0.375014 -0.482147 0.033117 -0.491942 -0.376840 -0.117350 0.075204 -0.208172 0.118329 0.055740 0.163086 0.069806 0.191120 0.998439 0.051556 1.176530 0.345970 0.766441 0.653981 0.226954 0.708495 -1.419031 0.280559 0.023017 -0.443128 0.807660 0.519212 0.867259 -0.843068 -0.213835 1.221967 1.419804 1.068983 
for -1.360371 -0.828391 0.260798 0.036267 0.195848 0.533597 0.264297 0.207032 -0.748117 0.473143 -0.213079 -0.678669 0.576530 -0.903566 -0.112721 -0.333560 0.196267 0.611402 -0.238962 0.353383 -0.197434 0.162463 -0.246895 0.514497 -0.759519 0.915284 -0.192841 0.180402 -0.145432 0.299793 0.874800 -0.309271 -0.362691 0.429401 -0.416162 0.117582 0.301032 -0.035697 0.251920 0.281235 0.098054 0.295461 0.410274 -0.075197 -0.059903 0.704519 0.094733 0.102165 0.684337 -0.214760 0.033684 -0.713132 0.292310 -0.205088 0.252884 -0.056501 0.494443 0.640688 0.250069 0.404815 0.829141 -0.281659 -0.487398 0.100199 -0.635954 0.137539 0.141959 -0.411954 0.045888 -0.065042 0.240860 -0.452664 0.407276 -0.069254 0.475426 -0.064535 -0.936526 0.616345 -0.537596 -0.443309 0.580873 -0.116145 0.524018 0.693967 0.485199 0.563468 0.003028 -0.685542 0.130968 -0.203360 0.645156 -0.146767 0.207227 -0.018820 0.145449 -0.341078 -0.385433 -0.085159 0.011417 0.255132 
as -1.629018 -0.942663 -0.343736 1.058426 0.769361 0.730777 0.876074 0.637320 -0.803195 0.637572 -0.254490 -0.326686 1.138956 -0.574471 0.403299 0.120814 0.138495 -0.659341 -0.075314 0.931548 0.724935 -0.323828 0.571731 -0.449823 -0.289403 1.177359 -0.451037 -0.366514 -0.507253 -0.064362 0.725305 -0.974162 -0.378942 -0.355024 -0.500029 0.254910 0.082871 -0.235183 -0.629473 0.340657 0.913817 1.092892 -0.791185 0.016206 -0.702617 0.617073 -0.357957 0.751485 0.259398 -0.179269 -0.316138 -0.655917 0.368168 0.302658 0.385224 0.728128 0.921339 1.239472 0.617529 0.079641 0.248237 -0.710887 -0.189854 -0.171283 -1.003334 0.241172 0.451389 -1.232271 0.217544 0.074561 -0.761788 -0.607659 -0.591036 0.632085 -0.249452 0.103296 -0.910548 0.680191 -0.747191 -1.018771 -0.070394 0.223306 1.003191 0.221694 0.317393 0.835445 0.783736 -1.130426 -0.159727 0.356801 0.955390 0.775770 0.191306 0.858363 0.120687 -0.390661 -0.999883 0.124857 0.296858 0.091892 
on -0.324996 -0.096558 0.483654 -0.175615 -0.508644 0.111542 -0.591757 -0.044798 -0.800720 1.149257 0.603417 1.014704 1.079664 -0.379531 0.406936 0.215387 0.282194 0.367121 0.064590 0.165449 -0.931417 0.021605 0.583808 -0.203179 1.324475 -0.263541 0.053446 0.190373 -0.362431 -0.026950 0.640308 0.072285 -0.129888 0.554964 0.324339 0.051235 -0.705388 -0.181892 0.584126 0.675070 -0.428096 -0.099186 0.471755 -0.695164 0.416173 -0.477827 0.778784 -0.877977 0.471652 -0.145768 0.090357 -0.349883 0.161865 1.005506 0.583973 -0.293187 0.282324 0.200792 0.067788 0.793827 0.849287 -0.426915 0.607261 0.882069 0.099333 -0.478475 0.416784 -0.152016 0.157552 0.768752 0.987171 0.348160 -0.185733 -0.358967 0.460542 -0.039859 -0.920094 0.509396 1.057056 0.520036 0.698604 -0.444678 0.055583 -0.492628 0.648567 0.159660 0.866104 0.300009 0.767050 0.458510 -0.162164 -0.075173 0.207189 0.438503 0.140278 0.272521 0.759857 0.993358 0.126339 0.225069 
dd 0.114353 -0.008636 0.241246 -0.150147 0.421356 1.116569 -1.125129 -0.204654 -0.744523 -0.238203 0.981365 0.429815 -1.155717 0.250485 -0.322060 0.902630 0.090844 -0.353864 -0.042758 0.979666 -0.181804 0.630345 1.082219 -0.444926 -0.111125 -0.824871 0.192698 -0.754211 0.203768 -0.061320 -0.388216 0.043588 -1.190160 0.643032 -0.942177 0.471064 0.009138 -0.773145 -0.097257 -0.653664 0.268328 -0.103336 0.148988 0.288552 -0.063130 0.324074 0.633026 1.075964 -1.557062 -0.750066 -1.939682 0.938890 0.683373 1.089907 0.011679 0.054180 0.206521 -0.988902 0.400300 -0.141498 0.199868 -0.911107 0.761543 -0.548967 -0.831959 -0.007478 -0.021711 0.416286 1.438134 0.123694 0.117542 -0.184545 0.329356 0.053403 -0.358671 0.941336 -0.621226 -0.532748 0.332358 0.563001 -0.551874 0.805898 -0.319392 -0.137361 -0.036041 1.673002 0.629899 0.733781 1.381857 -1.013873 -0.370495 1.118923 0.712344 -0.165294 1.210357 0.451019 0.009997 -0.286810 -0.703464 -1.288983 
with -1.108535 -0.276413 0.411779 -0.116969 0.449346 0.595712 -0.524580 -0.403245 -0.700986 0.312607 0.044878 -0.523319 0.684360 -1.172515 -0.108994 -0.274844 0.071981 0.317856 0.009969 -0.494361 0.104570 0.479651 0.181704 0.907991 -0.356476 0.837092 0.313880 0.348122 -0.332298 -0.047336 0.226812 0.100561 -0.510332 0.537524 -0.327213 -0.232412 0.040766 0.336327 0.255499 -0.001895 -0.085695 0.407871 -0.208151 0.167820 0.335114 0.298029 -0.119092 0.044773 0.780688 -0.735166 -0.384681 -0.173624 -0.314501 -0.284356 0.433720 -0.435428 0.668252 0.554324 -0.148193 0.445223 0.871538 0.058429 0.310118 0.070730 -0.298225 -0.237027 -0.116230 -0.224020 0.347704 0.056624 0.029007 0.386476 -0.092724 -0.088428 -0.158747 -0.133644 -0.567893 0.436313 -0.323647 -0.548082 0.597006 -0.720818 0.297104 0.310261 0.605077 0.628976 0.170278 -0.720534 -0.087823 0.198373 0.413971 -0.298292 0.278117 0.388192 -0.028796 -0.229142 -0.449257 0.103605 0.068281 0.569073 
by -1.535539 -0.116619 0.500179 -0.701219 1.774237 0.932457 0.421923 0.260226 -0.193465 0.671378 -0.565368 0.412117 0.250172 -0.058812 -0.848655 -0.049986 -0.905790 0.376653 0.401004 1.262959 -0.812082 -0.445307 0.415397 0.238652 0.224295 0.643024 -0.081603 -0.052415 0.380738 0.026949 0.643067 0.385297 -0.336329 0.260239 -0.018471 0.155306 0.504457 0.992219 -0.131261 0.178934 -0.512729 0.123035 0.065934 -0.626519 0.323039 -0.441345 -0.046612 -0.332516 -0.053904 0.023360 -0.146863 0.122149 -0.058281 -0.180728 -0.414270 0.121676 0.249220 0.496996 -0.043199 0.682986 0.046234 0.079208 -0.771430 -0.579605 -0.605120 -0.025526 0.382623 -0.208670 0.873086 0.439178 -0.201640 -1.438269 1.038269 -0.307867 -0.380168 0.079649 -0.494130 0.533230 -1.187572 -1.273712 0.010057 0.127307 0.249592 0.687781 0.241680 0.238504 -0.465363 -0.178281 0.181317 0.753487 -1.179846 -0.302227 -0.346255 0.035216 -0.024909 1.303307 -1.115791 -0.131223 -0.366978 0.516945 
he 0.598583 -0.235563 0.037879 -1.085023 0.484062 0.115615 -0.245715 0.026219 -0.493314 1.427889 0.348015 -0.186481 -0.200218 -0.157739 -0.419666 -0.618697 0.089649 -0.010313 2.208107 0.576722 0.165981 -0.467654 1.320797 -1.549561 1.870868 -1.550806 -0.375167 0.123707 0.602876 0.264665 0.217103 0.125106 -0.056729 -0.251699 -0.862703 -0.179112 1.373184 0.100661 -0.008232 -1.182480 -1.350799 0.234219 0.163289 -0.865931 0.863646 1.118254 0.951041 -0.740360 -1.151601 -0.034017 -0.394472 0.546624 -0.384686 -0.163232 -0.364418 0.401024 2.227409 1.094685 -1.353897 0.630572 -0.492778 -1.252877 0.209944 0.436050 0.400846 0.336465 0.097610 -0.147233 0.823531 1.883756 0.243573 -1.147832 1.063108 0.563031 -0.956592 0.574594 0.427873 0.456515 0.346702 -1.167287 0.029227 0.652350 -0.354431 0.145678 0.372992 1.162765 -0.055318 1.200248 0.292676 0.537361 -0.937439 0.075144 -0.361845 -0.097845 -0.799859 0.335375 -0.814702 -0.415437 -0.800282 -0.368977 
that 0.678028 -0.096940 -0.005881 -0.411374 0.145325 0.509647 -0.209650 0.206816 -0.521074 0.178019 0.641675 0.255873 0.019482 -0.019107 1.332801 0.402917 1.205909 0.567677 -0.311183 0.594836 0.235518 -0.160851 -0.310799 -1.013226 0.034504 -0.006065 -0.693177 -0.349157 -0.211347 0.556707 0.823245 0.540327 -0.106526 -0.328497 -0.685469 0.237507 0.276616 0.499443 -1.013601 -0.078012 0.243477 0.185771 -0.189213 -0.428462 -0.017521 0.455229 0.432852 0.277848 -0.551035 -0.128860 0.170688 0.000975 -0.750672 -0.062086 0.619349 -0.260695 0.223269 -0.494952 0.052445 0.205467 0.468588 0.329926 0.506469 -0.121601 0.020356 0.011944 0.473934 -0.479857 0.980171 0.247317 0.079606 -0.820061 -0.647624 0.323607 0.396480 -0.573327 0.046909 0.866165 0.116495 0.386339 -0.484809 0.256541 0.594751 -0.214727 -0.379768 -0.096112 -0.605083 -0.038453 0.651442 -0.052732 -0.085309 0.443622 -0.121656 0.481206 -0.084788 -0.044550 -0.417197 0.144737 0.031965 0.295131 
at -0.417760 -0.693226 0.562713 -0.404194 -0.225281 0.101867 0.162910 0.228329 -0.496612 0.922679 0.254288 0.421059 0.241726 -0.733535 -0.171260 0.928890 0.420605 0.606848 0.094563 0.502654 -1.003431 0.556560 0.043798 -0.380096 0.381723 -0.222038 0.189153 0.239727 0.050358 -0.046991 0.409527 -0.201475 0.010547 0.510439 0.017890 -0.528761 -0.326254 -0.255865 -0.135030 -0.017017 -0.083098 -0.228429 0.298303 -0.145593 0.455026 -0.659504 0.433259 -0.606495 0.563464 -0.269469 0.119517 -0.591696 0.174745 -0.082054 -0.343012 -0.314328 0.700067 0.149996 0.512858 0.256843 0.774572 0.027849 0.346011 0.281927 0.184234 0.158727 0.507984 0.223872 0.096648 0.525467 0.422167 -0.314697 0.558075 -0.228565 0.734907 0.049289 -0.575115 0.627338 0.196722 0.500614 0.433826 -0.052441 -0.521671 -0.026277 0.668196 0.206893 0.214769 0.091811 0.331346 -0.301636 0.013579 -0.247540 -0.100477 -0.070977 0.261181 0.484386 0.763951 0.144181 -0.251288 -0.317764 
from -0.591169 -0.490553 0.201117 -0.052525 0.285390 0.351072 0.112231 -0.020783 -0.249561 0.829492 0.143959 0.371431 0.184973 -0.454686 -0.770149 0.646420 0.249175 0.709717 0.346916 0.128623 -0.552376 0.364218 -0.076934 -0.019190 -0.432890 -0.199606 0.399027 0.076639 0.035558 -0.149433 -0.005665 -0.342426 -0.078378 0.359269 -0.058075 -0.258069 -0.411565 0.312827 0.774498 -0.030305 -0.142898 0.190361 0.131079 -0.079545 0.416832 -0.515034 -0.063558 -0.084296 0.746123 -0.178822 0.391454 -0.128411 0.404286 0.103826 -0.131432 -0.251080 0.251242 0.053946 0.289719 -0.336429 0.553814 0.174394 -0.222780 0.068980 0.323479 0.434475 0.269480 -0.101968 0.000637 0.287622 0.344596 0.363138 0.626875 -0.027488 -0.179205 -0.253309 -0.429129 0.463977 -0.137438 0.288986 0.178744 -0.202434 -0.136511 -0.108167 0.104230 0.352915 0.011275 -0.262437 0.185184 -0.080350 -0.107811 0.103470 -0.133756 -0.056078 0.004476 -0.217355 0.286863 -0.058737 0.153297 -0.033634 
his 0.777332 0.908201 0.706323 -0.249248 0.421047 -1.064327 0.092967 -0.691501 -0.597054 -0.626110 -0.005180 -0.989006 -1.121077 0.969165 -0.202512 -1.305019 -0.858197 -0.572897 -0.217695 -1.722807 0.059646 -0.409999 -0.741440 0.297409 0.891689 0.309268 -0.357123 -0.318046 1.229188 0.534949 0.012093 -0.249931 0.159660 -0.052998 -0.420237 0.805274 1.092598 -0.357523 -0.297864 -1.089720 -0.222795 0.922132 0.560884 0.025177 -0.408141 1.204929 1.029941 -0.412065 -0.155025 0.576609 -0.828585 0.162219 0.944163 0.020295 -1.237047 0.092780 0.107767 0.523208 -1.070577 -1.229512 0.133917 -0.018857 -0.517345 -1.080191 -0.585072 0.803532 0.249484 -0.387220 -0.160592 -0.121268 0.232028 -0.449818 -0.465853 -0.073747 1.258719 -1.041017 0.266148 -0.839382 -0.356953 -1.544473 -0.470107 0.165605 0.054059 -0.609636 -1.490143 -0.064700 -0.629128 0.852061 1.020029 -1.138220 1.357878 0.307765 -0.299220 0.421804 -0.036897 1.133067 -0.216426 -0.738611 -0.538041 0.174020 
it 0.895945 -0.227031 -0.079416 -0.658484 0.298170 0.040673 -0.336647 0.175338 -0.244019 0.678403 0.528595 0.306100 -0.877292 -0.054179 0.174741 0.029775 0.545713 0.112431 0.499743 0.559476 0.069567 -0.563788 0.747690 -1.560932 1.298370 -1.007541 -0.311015 0.035437 -0.167176 0.147244 0.483136 0.176765 -0.218474 -0.820524 -0.512482 0.114737 0.938068 0.230987 -0.191854 -0.788694 -1.070238 -0.001211 -0.153963 -0.218121 0.048609 1.090142 0.098730 -0.111832 -1.462811 -0.063182 -0.116889 0.494209 -0.791320 0.608068 0.528039 0.347421 0.839091 -0.116535 -1.289069 0.571019 -0.696308 -0.499916 -0.353659 0.327318 0.761816 0.483145 0.374822 -0.435212 0.747663 1.002503 0.173861 -0.278735 -0.001523 0.514467 -0.649916 -0.034958 0.253196 0.551898 0.376110 -0.545188 -0.095433 0.580415 0.089874 0.142282 0.171156 0.572931 -0.231800 0.524051 0.386773 0.960486 -0.724061 0.343355 -0.559569 -0.191670 -0.115108 0.197487 -0.809647 0.255981 -0.126914 -0.340582 
an 0.148817 0.319038 0.010292 0.455484 0.080216 0.298777 0.175564 -0.065931 0.371935 -1.468974 -0.025336 -0.134875 -0.774184 0.242397 -0.103527 -0.312144 -0.257992 -0.835179 -0.664298 -0.504605 -0.297174 -0.433273 0.210187 -0.312366 0.682332 0.063342 -0.137047 0.489881 0.045356 -0.371695 0.220774 -0.336097 0.006450 -0.994359 0.484275 0.306944 0.101636 -0.072376 -0.374661 -0.207990 -0.556404 -0.146855 0.043243 0.759789 -0.754520 0.564645 -0.232207 -0.096017 -0.918090 0.266008 -0.241258 -0.000883 -0.132972 0.900181 0.093386 0.360899 -0.937897 -0.368827 -0.767125 0.585637 -0.770429 -0.199945 -0.657103 0.184955 0.037695 0.031640 0.036972 -0.031986 0.031845 -0.273904 -0.296241 0.042592 -0.668209 0.318961 0.618544 -0.002467 0.170970 -0.330320 -0.136000 -0.785476 -0.081035 0.466234 -0.359406 -0.085692 0.398272 0.104934 0.234818 0.130977 -0.190167 0.990148 -0.051240 0.088993 -0.844733 -0.174897 0.353749 0.581129 -0.843301 0.012922 0.198128 -0.221399 
d 0.147853 0.023506 0.333082 -0.202254 0.345845 1.148724 -0.915914 -0.081390 -0.684139 -0.234927 0.865437 0.715314 -0.935889 0.188334 -0.356747 0.757020 0.148873 -0.399984 0.117330 0.849977 -0.426735 0.532392 1.213112 -0.383064 0.109317 -0.905645 0.265936 -0.449750 -0.049929 -0.069541 -0.098450 -0.198770 -0.907721 0.552256 -0.437413 0.451820 -0.199622 -0.680225 -0.009435 -0.604303 0.137770 -0.481612 0.097078 0.334973 -0.057744 0.139860 0.477633 0.566884 -1.325005 -0.830350 -1.714506 0.757044 0.610856 1.109149 0.194558 -0.020193 0.043490 -0.848621 0.285294 0.281689 0.069095 -0.831952 0.646198 -0.330559 -0.623162 -0.068894 0.022523 0.523102 1.292209 0.172963 0.133379 -0.061316 0.395281 0.372426 -0.186186 0.804802 -0.501996 -0.319636 0.388387 0.690154 -0.045256 0.564297 -0.228227 -0.045092 0.176661 1.575863 0.552736 0.623131 0.997403 -0.475287 -0.482255 0.929844 0.408456 -0.237490 1.186282 0.470996 0.012084 -0.007242 -0.574042 -1.140450 
were -0.553721 0.554214 1.031257 -0.025069 1.190614 -0.980410 0.175218 -1.391345 0.778478 1.612940 -0.711603 -0.486390 0.600494 0.335860 -0.998893 -0.826627 -0.860433 -1.046841 0.948124 0.114867 -0.132625 0.304006 1.021338 -0.123027 -1.199733 -1.259738 0.700255 -0.787331 0.609156 -0.115816 -1.140163 0.438671 -0.917877 0.059508 0.276693 0.489121 0.259428 -0.976301 0.515881 -0.177507 -0.392755 0.313579 0.123217 -1.070579 0.703176 -0.266883 -0.805358 -0.382362 0.042128 -0.142578 -0.333211 -0.348362 -0.320469 -1.123807 0.953795 -0.350873 0.227645 0.372819 0.352395 -0.689825 -0.593218 -0.681174 -0.419804 -1.601237 -0.104684 1.145359 -0.330198 0.091028 0.480118 -0.528077 -0.349399 -0.827603 0.295340 -1.076115 -0.744668 -0.062083 -0.055951 -1.084751 -0.045026 -0.624580 0.219224 -0.380364 0.868647 0.482558 -0.865201 0.723359 -0.417566 0.260771 -0.369674 -0.251570 -0.961086 -0.437089 0.726914 1.570808 -0.133762 -0.892539 0.155084 0.577450 0.143707 0.185073 
which 0.721242 -0.029575 -0.323156 0.002846 -0.043126 0.509779 -0.401743 0.196923 -0.454416 -0.309059 0.337043 0.481235 -0.250195 -0.256684 0.857248 0.476387 0.675565 0.046850 -0.175859 0.118358 0.418082 -0.210886 -0.024325 -0.597038 0.184277 -0.244128 -0.209061 0.335072 -0.302723 -0.159705 0.176255 0.206538 -0.062783 -0.227800 -0.215776 -0.091874 -0.261877 0.383366 -0.142193 -0.402368 0.091573 0.084976 -0.417296 0.198398 0.160770 0.169347 -0.024693 0.080490 0.043634 -0.003131 -0.133875 0.107983 -0.519550 -0.204949 0.056429 -0.117993 0.212674 -0.329746 -0.457934 -0.179323 -0.127416 0.416852 0.269664 0.276026 0.000761 -0.347419 0.360034 -0.109390 0.444851 0.471749 0.245104 -0.360585 -0.719119 0.418997 -0.167298 -0.332464 -0.068560 0.209057 -0.048011 -0.130698 -0.159616 0.289598 0.100216 -0.695209 -0.136880 -0.029487 -0.111843 -0.196258 0.100990 0.345886 -0.146522 0.513891 -0.645517 0.307183 -0.154336 -0.096488 -0.411098 0.117858 -0.342653 0.067698 
are -0.488308 0.191798 1.107070 0.190330 0.602759 -0.843081 0.509812 -0.949049 0.383969 1.427451 -0.822992 -0.419778 0.392094 -0.878431 -0.396003 -0.327625 -0.137493 -1.084645 0.411423 0.037256 -0.255751 0.454046 0.977859 -0.826124 -1.342468 -1.162930 0.749958 -0.147634 -0.275836 -0.282423 -0.715928 0.220495 -1.055383 -0.147702 0.458730 0.554210 0.037108 -1.145617 0.496084 -0.454049 -0.195209 0.146388 0.063898 -0.565896 0.230180 0.002816 -1.387549 -0.079657 -0.258497 -0.636515 0.051979 -0.648242 -0.774680 -1.281868 1.973349 -0.455995 0.154078 0.005304 -0.136140 -0.101887 -0.423630 -0.758378 -0.218060 -1.201291 0.478668 1.153079 -0.365662 0.106506 0.360353 -0.729969 -0.350146 -0.353204 -0.259582 -0.584368 -0.431863 -0.362226 0.108432 -0.438549 -0.197821 -0.251051 0.906358 -0.142048 1.047074 0.673732 -0.283823 0.544968 -0.622905 -0.367564 -0.589806 0.358128 -0.810210 -0.339067 0.754232 1.446135 0.134721 -1.216249 -0.024043 0.907595 0.731944 0.018765 
this 1.433028 -0.322054 0.157513 -0.427487 -0.497743 -0.181920 -0.100929 0.207549 -0.246136 -0.966033 0.308145 -0.227665 -0.994224 -0.082403 0.785254 0.005132 0.447246 -0.161208 -0.502458 -0.375660 -0.290498 -0.354960 -0.502141 -1.054002 0.578149 -0.325714 -0.473205 0.347024 -0.136758 0.287908 0.520099 -0.029876 -0.068963 -0.951865 -0.189597 0.351352 0.683851 -0.164444 -0.781562 -0.719448 -0.383049 -0.189692 0.143987 0.506278 -0.970301 0.997730 -0.119248 -0.094995 -1.005574 0.220698 0.089201 0.222215 -0.488553 0.139372 0.212709 0.519675 -0.013659 -0.710758 -1.267022 0.511356 -0.315356 -0.103339 -0.101620 0.370025 0.389533 0.354282 -0.115114 -0.142738 0.028096 0.164038 0.304232 -0.483783 -0.711543 0.483155 0.773504 -0.551885 0.408300 0.389011 0.359573 -0.232311 -0.254013 0.406130 -0.107621 -0.267658 -0.081374 -0.095134 -0.306446 0.309706 0.357478 0.477850 0.207971 0.076172 -0.548295 -0.218942 0.245305 0.326861 -0.438401 0.142107 0.440038 -0.127515 
be 1.166283 0.373639 0.583181 -0.036301 1.012768 0.303105 -0.458802 -1.038547 -0.085149 1.239989 0.318694 -0.077514 0.198504 -0.053033 0.100070 -0.381855 0.201342 -1.148871 0.261853 0.347134 -0.126211 -0.437241 1.696059 -1.810117 0.117298 -1.661912 0.759584 -0.744292 -0.214178 -0.137017 -0.438044 0.052313 -0.718975 -1.107960 -0.288171 0.270536 0.235471 -0.595429 0.315393 -0.970102 -0.588823 0.074429 -0.207980 -0.921129 0.175231 0.279355 -0.205244 0.698214 -1.199347 -0.418863 0.044256 0.221181 -1.514474 0.739076 1.792426 -0.038166 1.546096 -0.402252 -1.233867 0.610733 -0.282471 -0.309062 -0.495968 -0.263252 0.648914 0.168599 0.699112 -0.413388 0.884747 0.878945 0.289225 -0.678575 -0.716887 -0.211444 -0.948884 -0.342556 -0.151275 -0.181863 0.582606 -0.587581 0.884170 0.522032 1.726384 -0.416649 -0.722585 1.035450 0.325657 1.118051 0.030175 0.408395 -1.299158 0.687948 0.286769 1.486280 -0.193359 -0.996954 -0.676560 0.164733 0.585899 0.441439 
also -0.029042 -0.083596 -0.165648 -0.088722 0.676924 -0.148810 -0.380832 0.286523 -0.244153 0.740800 0.173329 0.296522 -0.282332 -0.081471 0.446261 0.612390 0.652349 0.098422 -0.123660 0.554282 0.301026 -0.255713 0.454630 -1.075766 0.564215 -0.318809 -0.507687 -0.167895 -0.054443 0.227067 0.250034 -0.036510 -0.412695 -0.392142 -0.517862 -0.368519 0.444253 0.284247 -0.630611 -0.389992 -0.578113 0.040259 -0.348059 -0.067118 0.537636 0.515815 0.245548 0.008969 -0.582224 0.217498 -0.226724 -0.156554 -0.446354 0.305897 0.372883 -0.244405 0.483473 0.146062 -0.151450 0.097634 -0.085156 -0.015409 -0.204222 -0.004667 -0.053318 0.078409 1.133013 -0.366489 0.689197 0.223672 -0.078752 -0.865534 0.074672 0.144801 -0.345310 -0.144727 -0.238623 0.166593 0.012393 -0.454521 -0.032989 0.297267 0.455504 -0.138971 -0.096993 0.582240 -0.358762 0.017561 0.198229 0.491590 -0.004687 0.099557 -0.259631 0.648403 -0.083556 0.288506 -0.739925 0.390339 -0.273434 -0.374913 
or -0.055309 0.282951 0.208686 0.341700 0.096868 0.168813 -0.172020 -0.433896 -0.237689 0.305818 -0.006925 0.039322 -0.375104 -0.635893 0.165263 -0.036892 0.373507 -0.236167 -0.616043 -0.181777 -0.061185 0.047132 0.406811 -0.059877 -0.300147 0.269659 0.420877 0.159392 -0.613399 -0.185574 -0.002480 0.361105 -0.551327 -0.114273 0.214461 0.299466 -0.228922 -0.131376 0.619668 -0.198826 0.070206 0.242411 -0.151722 0.284489 0.119311 -0.025767 -0.616617 0.431417 -0.270070 -0.667639 -0.006343 -0.203314 -0.339551 -0.015489 1.025937 -0.476178 -0.190159 -0.404756 -0.260163 0.087601 0.117708 0.049626 -0.273064 -0.214469 0.367587 -0.039434 0.043296 -0.041721 0.131998 -0.286937 0.117889 0.989021 -0.433105 -0.273560 -0.094682 -0.317024 -0.113479 0.235742 -0.573304 -0.008934 0.544437 0.121309 0.506207 0.432781 0.215371 0.051608 -0.115471 -0.494822 0.084405 0.237726 -0.227579 0.277797 0.115369 0.017726 0.342736 -0.214094 -0.098573 0.100256 0.227237 0.171178 
had -0.170855 -0.203318 0.750022 -0.429773 0.932402 -0.297427 -0.350018 -1.180892 0.518975 1.163629 -0.636823 -0.730903 0.669243 -0.244982 -0.315089 -0.115065 0.171920 -0.443699 0.310358 0.254993 -0.120904 0.399695 0.639732 -0.362627 -0.855038 -0.916853 0.000220 -0.519182 0.430823 0.464919 -0.797376 -0.228811 -1.097650 0.330946 -0.044258 -0.308175 0.168734 -1.022045 0.075522 -0.108241 -0.336315 0.492867 -0.137152 -0.146488 1.025558 -0.038258 0.164864 0.304409 -0.152035 0.038706 0.455329 -0.391408 0.178718 -0.967126 0.789177 -0.540647 0.942730 0.057691 0.373395 0.182683 0.360332 -0.820354 0.282003 -0.961906 -0.344922 0.541188 0.817325 -0.047446 0.184111 -0.369466 0.305951 -0.880158 0.883043 -0.431813 -0.243897 -0.015483 0.085974 -0.125013 -0.506391 0.190002 0.044476 -0.204776 0.794135 0.093738 -0.247284 1.119243 -0.618200 0.284435 -0.250399 -0.016080 0.406571 -0.581993 1.536602 1.395639 -0.212276 -0.702293 -0.373508 0.365249 0.967638 0.261637 
has -0.323413 -0.699077 0.832648 -0.367004 0.793387 -0.106161 -0.109131 -0.537364 0.413496 0.831654 -0.930536 -0.389548 0.713816 -0.734691 -0.187281 0.449157 0.203633 -0.414706 0.143349 0.457570 -0.622640 0.534440 0.721760 -0.851986 -0.511019 -1.052872 -0.246634 0.044708 0.302164 0.076017 -0.405925 -0.675324 -1.117469 0.322676 0.318133 -0.484233 0.165478 -0.903179 -0.222288 -0.003075 -0.439590 0.279128 -0.120349 0.133083 0.617550 -0.109303 -0.105273 0.024206 -0.156293 0.205519 0.653008 -0.660674 0.249437 -0.862654 0.681612 -0.153502 1.003540 0.190769 0.107643 0.932104 0.307338 -1.068676 0.374999 -0.510680 -0.571044 0.512008 0.909611 -0.006134 0.135960 -0.210916 0.373689 -1.449097 1.027112 -0.048325 -0.032416 0.167097 -0.000477 0.161523 -0.405981 0.354210 0.191933 -0.111046 0.628975 -0.120978 0.297428 1.231977 -0.431053 0.227345 -0.481010 0.817241 0.501551 -0.798754 1.191966 1.352758 0.044451 -0.394608 -0.413214 0.790772 1.203921 -0.014181 
first 0.273923 -0.289882 0.156087 0.268890 -0.388629 0.293752 -0.167266 0.089149 -0.465497 0.196092 0.345432 -0.326930 -0.120202 0.300882 0.263209 -0.424965 0.536760 0.135342 0.356144 -0.074718 -0.859906 0.255633 -0.192268 0.170446 0.144235 0.279721 -0.540589 -0.064814 0.887679 0.495388 0.647530 0.154387 0.190645 -0.144638 -0.500448 0.268204 0.346779 -0.154493 -0.559811 -0.024731 -0.296014 -0.038019 0.382374 -0.169224 0.167684 0.460236 0.529243 -0.876229 0.299680 0.272916 -0.155342 -0.547612 -0.041981 -0.295312 -0.704945 0.052097 0.145435 -0.107420 0.247756 0.273823 0.233135 -0.084368 -0.249903 0.601603 -0.291898 -0.007516 0.107368 -0.219471 0.119920 0.256146 0.803212 -0.686389 0.177562 -0.209960 1.169252 -0.633877 -0.798750 0.424137 0.307674 -0.966631 -0.190603 0.466490 -0.268931 -0.070465 0.120833 0.740589 0.419751 0.233735 0.646383 -0.250579 -0.292305 -0.111898 -0.783795 -0.037605 0.797216 0.403946 -0.005291 -0.030873 -0.836841 -0.037567 
ddd -0.186698 0.491937 0.403269 -0.096936 0.491097 0.952866 -0.920526 -0.555548 -0.552223 -0.192910 0.891829 0.344473 -0.638355 -0.334381 -0.025591 0.440982 0.107567 -0.397754 -0.095334 0.450471 -0.229003 0.350026 0.806045 0.201415 -0.126414 -0.395304 0.303083 -0.291507 0.025087 -0.102577 -0.443824 0.596926 -1.003260 0.591051 -0.451503 0.455923 -0.348084 -0.455932 0.353314 -0.254956 0.150670 -0.086841 0.354218 0.018103 0.380221 -0.016723 0.180151 0.335019 -0.993244 -0.746111 -1.383639 0.516659 0.179146 0.401408 0.512986 -0.577764 -0.267170 -0.848718 0.077018 -0.100147 0.062033 -0.548528 0.459348 -0.449096 -0.298451 -0.308014 -0.205492 0.652827 1.263599 0.005438 0.172359 0.363130 -0.006638 -0.416233 -0.165756 0.519248 -0.331993 -0.537982 -0.040639 0.235702 -0.112299 0.320215 -0.385866 0.070316 0.173264 0.810714 0.181645 0.190251 0.919037 -0.474507 -0.796079 0.516088 0.351864 -0.079587 0.930592 0.238148 -0.066339 -0.175045 -0.696989 -0.743798 
their 0.362672 0.291423 0.356708 -0.320898 0.102108 -0.881175 -0.070776 -0.287300 -0.613462 -0.535361 0.096387 -0.265777 -0.769515 0.361543 -0.050592 -0.497506 -0.761121 -0.268052 -0.359534 -1.129954 0.016283 -0.507253 -0.657077 -0.158073 -0.093240 0.025800 -0.195858 -0.161323 0.061152 0.297541 -0.001008 0.032630 -0.377976 -0.022602 -0.127400 0.802331 0.770428 -0.135908 0.299643 -0.636188 -0.051132 0.374781 0.598485 0.083041 -0.736635 0.918195 -0.033573 -0.084268 -0.645384 0.306511 -0.614155 0.468662 0.334915 0.191153 0.070803 0.453606 -0.572883 -0.040156 -0.837936 -0.886681 0.066259 -0.140844 -0.257757 -0.668382 -0.211684 0.795870 -0.603434 -0.000457 -0.219241 -0.530069 -0.163335 -0.052949 -0.780776 -0.223087 0.346938 -0.368195 0.236890 -0.716357 0.117272 -0.561252 -0.216420 -0.094549 0.191829 -0.350301 -1.098091 -0.247169 -0.417525 0.325654 0.906728 -0.445080 0.481952 0.247246 0.213630 0.442820 -0.376667 0.462341 -0.034578 -0.306020 0.357823 -0.400654 
one 0.909135 0.043853 0.181109 0.273426 0.209851 0.420954 -0.659731 -0.127599 -0.485227 -0.438682 0.138942 -0.159032 -1.047584 -0.169739 0.581759 -0.175891 0.776059 -0.675802 -0.445053 -0.026944 -0.438204 0.003375 0.446662 -0.984289 0.234892 -0.342759 -0.623669 0.140725 0.213743 0.059834 0.254474 0.266327 -0.890631 -0.422039 -0.238703 0.713149 0.480947 -0.446134 -0.357193 -0.671382 -0.100409 0.122310 -0.043124 0.658870 -0.382104 0.792263 -0.128423 -0.061339 -1.111652 -0.380060 -0.469964 -0.039872 0.044344 -0.091245 0.264237 -0.014157 -0.120660 -0.448081 -0.595723 0.578439 -0.169357 -0.629580 -0.020309 0.036821 -0.259264 0.297354 -0.151139 -0.008686 0.692810 -0.162137 0.698459 -0.244771 -0.098710 0.162460 0.550606 -0.126711 0.015418 0.334487 -0.361550 -0.267234 -0.274795 0.683404 -0.139897 0.215650 0.234100 0.896952 -0.246063 0.018701 0.539536 0.562582 -0.123714 0.395030 -0.454306 0.087568 1.081826 0.627671 -0.367593 0.151648 -0.037465 -0.618730 
its 0.621515 0.047860 0.267190 -0.231489 -0.065864 -0.616970 0.244262 -0.152969 -0.259370 -0.800941 0.032052 -0.261892 -0.824865 0.100796 -0.020316 -0.199068 -0.342662 -0.381959 -0.321308 -0.838976 -0.189150 -0.426585 -0.545314 -0.331435 0.055386 -0.049660 -0.184862 0.161663 -0.175649 0.257543 0.006230 -0.149917 -0.110138 -0.316434 0.131146 0.533169 0.524124 -0.289291 -0.094372 -0.596619 0.000350 -0.022645 0.285304 0.353815 -0.864602 0.713102 -0.299180 0.046609 -0.746113 0.161615 -0.085569 0.277161 -0.097842 0.203313 0.118178 0.430963 -0.556966 -0.226591 -0.903115 -0.435395 -0.204515 -0.086186 -0.155186 -0.335849 0.305069 0.634387 -0.523917 0.129259 -0.332116 -0.474362 -0.348319 0.139455 -0.664572 0.016273 0.381714 -0.254601 0.473254 -0.398268 -0.033978 -0.407652 0.024324 0.163678 -0.016536 -0.242730 -0.547120 -0.329850 -0.437061 0.287180 0.378447 -0.120669 0.243472 0.189855 0.038567 0.156726 -0.110543 0.420455 -0.161404 -0.227348 0.567798 -0.339322 
but 0.308712 -0.034322 -0.266106 -0.019316 0.013613 -0.037972 -0.183798 -0.063794 -0.095521 0.778654 0.182894 0.118732 -0.087225 -0.272280 0.320569 -0.000185 0.551863 0.089992 -0.002469 0.268870 0.485311 -0.168089 0.075241 -0.464570 0.072753 -0.167467 0.038935 -0.117547 -0.193120 -0.078829 0.072050 0.374278 -0.074519 -0.433910 -0.217889 -0.180161 -0.114690 0.297878 0.167956 -0.261997 -0.164622 0.327232 -0.467260 -0.098499 0.401579 0.116734 -0.073089 0.014207 0.074376 -0.169590 0.261487 -0.060721 -0.342877 -0.308273 0.216717 -0.213209 0.354110 0.016426 -0.199049 -0.220214 -0.089837 0.290641 -0.163940 -0.013905 0.544418 -0.031798 0.294171 -0.169260 0.229848 0.450842 0.244186 0.143028 -0.282374 0.056002 -0.337624 -0.410465 0.045282 0.325439 -0.136703 -0.142142 -0.090782 0.099287 0.050226 0.106489 -0.051333 -0.110432 -0.209870 -0.430760 -0.100814 0.104073 -0.249778 0.243719 -0.478826 0.016559 -0.267874 -0.324022 -0.086410 0.089632 -0.401434 0.158235 
new -0.636327 -0.299841 0.224289 0.404869 -0.457682 0.035665 0.663659 -0.024540 -0.183147 -0.064363 0.027137 -0.102713 0.438419 -0.700464 -0.066522 0.938569 -0.194318 -0.320030 1.015423 -0.380335 -0.306235 0.492034 0.027351 0.463786 -0.154927 0.365768 0.745145 0.534540 -0.147461 -0.365576 -0.803496 -0.447198 0.042121 0.523666 -0.155309 -0.427459 -0.455827 -0.195668 0.009461 0.173309 0.237950 0.227141 -0.224724 -0.006693 -0.221696 -0.253382 -0.400555 0.843042 0.684305 0.319558 0.471184 0.017755 -0.671367 0.022862 -0.094978 0.372929 0.349040 0.210618 -0.410622 -0.611864 0.068129 -0.176535 0.899379 0.545911 0.040272 -0.235118 -0.163973 -0.078458 -0.660100 0.418449 -0.460710 0.569846 -0.676286 -0.193210 -0.449594 0.077781 -0.314361 -0.555281 0.080184 -0.886409 0.329165 0.227475 -0.279830 -1.036345 0.675680 -0.028561 0.839674 0.228706 -0.214197 -0.675706 -0.317476 0.027089 0.728300 0.357037 -0.310233 -0.195349 -0.437200 -0.242016 0.555574 0.626804 
after -0.300235 -0.384220 0.150532 -0.324387 0.087417 0.255639 -0.096302 -0.101877 -0.136490 1.094605 0.178560 -0.164182 0.171391 -0.160944 -0.108743 0.052468 0.506494 0.517029 0.534891 0.611068 0.043465 0.417501 0.131488 0.132344 0.032040 0.116236 -0.105030 -0.210787 0.529696 0.430132 0.163361 0.150998 -0.206033 0.471055 -0.585532 -0.171408 0.248370 -0.176371 -0.044221 0.069420 -0.070735 0.426875 -0.251531 -0.339706 0.593198 0.269320 0.653359 0.033727 0.256425 -0.284577 0.028486 -0.208885 0.350039 -0.335224 -0.393117 -0.294489 0.907083 0.307280 0.494202 -0.035329 0.422675 -0.322903 0.185625 -0.068825 -0.227142 0.142740 0.305438 -0.419203 0.292766 0.510560 0.350927 -0.218003 0.667547 -0.129876 -0.083769 0.045747 -0.516479 0.486101 -0.120861 -0.214831 -0.140924 0.061208 0.039563 0.243650 0.228690 0.673172 0.067353 0.044980 0.338051 -0.530125 0.200177 -0.045354 0.254406 -0.140086 0.252079 -0.087792 -0.033814 0.111553 -0.540028 0.209121 
not 0.699585 -0.087072 -0.217868 -0.563196 0.230589 -0.076144 -0.659138 0.058677 -0.553970 0.890240 0.559082 0.209144 -0.873153 -0.218491 0.997074 0.077006 0.903676 0.710238 -0.615271 0.663418 0.591203 -0.719217 0.240105 -1.167966 0.491395 0.082986 -0.541839 -0.360637 -0.602803 0.607603 0.760228 0.927706 -0.766415 -0.408719 -1.012851 0.419553 1.191296 0.552303 -0.119613 -0.463079 -0.415176 0.565223 -0.137959 -0.349013 0.047099 1.287405 -0.007119 0.748990 -1.509843 -0.217313 -0.078420 0.382614 -0.760306 0.450460 1.294548 -0.155673 0.668118 -0.551377 -0.709947 0.189408 0.103508 -0.085257 -0.461569 -0.063015 0.183543 0.270095 0.648157 -0.894612 0.735562 0.456793 0.173944 -0.020487 -0.476664 0.039704 -0.659390 -0.363620 -0.037836 1.003306 -0.097433 -0.069537 -0.278425 0.315406 1.187891 0.441245 -0.338421 0.143646 -0.464683 -0.022772 1.020233 0.408607 0.066769 0.468535 0.184094 0.122903 -0.199091 -0.246834 -0.884994 0.349810 0.123171 0.160894 
who -0.295015 0.792175 -0.363160 0.418407 0.855478 0.470443 -0.351163 -0.203534 -0.349673 0.385001 0.512878 0.053132 0.162732 -0.137918 0.237496 -0.350082 0.170693 -0.060392 0.388458 0.012497 0.422199 -0.506529 0.651717 -0.190662 0.581048 0.136199 -0.178002 -0.142632 0.119932 -0.006469 -0.030592 0.401623 -0.022387 -0.137575 -0.583807 0.096189 0.183784 0.649249 0.304288 -0.243170 -0.350651 0.317112 0.398265 -0.505763 0.990321 0.030392 0.361293 -0.119081 -0.229435 0.040561 -0.356214 0.119336 -0.425400 0.174437 0.304875 -0.626510 0.196208 0.336279 -0.346821 -0.151533 -0.066451 0.069612 -0.457630 0.215900 0.030161 -0.484159 0.707564 -0.036995 0.852172 0.382181 0.018168 -0.132017 0.145786 -0.078212 -0.380323 -0.203943 -0.082957 -0.015089 -0.575466 -0.759248 0.023073 0.251603 0.233293 0.067503 -0.211222 0.118437 -0.263580 -0.115945 0.205070 0.360293 -0.528806 0.320968 -0.533783 0.417103 -0.356301 0.097383 -0.763246 -0.439974 -0.495282 0.111709 
her 0.731833 0.896764 0.443408 -0.207664 0.464889 -0.828117 -0.203805 -0.736012 -0.100617 -0.560873 -0.009220 -0.563894 -0.774913 0.759719 0.180039 -0.976858 -0.453448 -0.543634 -0.455037 -1.332006 0.179311 -0.665700 -0.352050 0.052313 0.786987 0.225613 -0.302042 -0.159060 0.772284 0.409159 -0.097273 0.029246 -0.167393 -0.293486 -0.244293 0.574348 0.972513 -0.067999 -0.153251 -0.597366 -0.408464 0.594956 0.099223 0.163348 -0.147800 1.009151 0.549060 -0.075149 -0.530427 0.454406 -0.411389 0.234249 0.170190 0.243346 -0.194117 -0.064729 0.000982 0.151037 -1.088358 -0.677724 -0.275006 -0.019567 -0.553199 -0.743993 -0.334661 0.418570 0.262695 -0.346409 -0.290450 -0.179184 0.165018 -0.206689 -0.800130 -0.161946 0.533782 -0.682979 0.296978 -0.732319 -0.166525 -1.303365 -0.394216 0.041865 0.556422 -0.434478 -1.003930 -0.142583 -0.487572 0.780833 0.604091 -0.480489 0.800533 0.004096 -0.017251 0.491128 -0.308418 0.673768 -0.620170 -0.350882 0.048005 0.327144 
two 0.135776 0.471174 0.151201 0.192566 0.433789 0.082951 -0.378848 -0.319838 -0.720020 0.179567 0.353964 -0.049307 -0.575268 -0.197317 0.134233 0.109391 0.313211 -0.419937 0.110148 -0.085134 -0.113334 0.190385 0.281471 -0.257276 -0.550989 -0.257228 -0.173847 -0.344132 0.102170 0.272162 -0.345962 0.376501 -0.656757 0.534430 -0.399749 0.494461 0.033017 -0.517281 0.164066 -0.600501 0.469545 -0.003234 0.324583 -0.057255 0.253115 0.203936 0.099146 0.157136 -0.503851 -0.471108 -0.834126 0.134063 0.051966 -0.353519 0.287403 -0.526232 -0.282041 -0.206912 0.258794 -0.676811 0.335071 -0.200648 0.436311 -0.506377 -0.137344 0.202364 -0.261956 0.466469 0.731709 -0.536154 0.010034 0.064627 -0.007843 -0.384456 0.083795 0.050902 -0.055694 -0.421199 -0.372541 -0.072372 0.181699 0.464476 -0.060921 0.038910 -0.469680 0.611396 -0.497014 0.035972 0.731590 -0.767864 -0.351365 0.596525 0.442852 0.547412 0.510659 0.279219 0.124903 -0.389250 -0.285890 -0.784266 
they 0.438786 0.038189 -0.229217 -0.715176 0.423729 -1.061274 -0.515899 0.114545 -0.695140 1.700164 0.366644 0.314408 -0.628436 -0.342326 0.232099 0.234919 0.229679 0.208703 0.554995 0.330671 0.673826 -0.595066 0.495130 -1.639063 0.711185 -0.891739 -0.316789 -0.305010 -0.603433 0.331866 0.070561 0.779758 -0.712132 -0.507379 -0.689587 -0.084096 0.991713 0.520722 0.127903 -1.044377 -0.866855 0.448919 0.072018 -0.733499 0.437288 0.927943 -0.163209 -0.096144 -1.247834 0.145073 -0.386628 0.387238 -0.649388 -0.040659 0.874534 0.040724 0.679725 0.323990 -0.832048 -0.453801 -0.104269 -0.291765 -0.041293 -0.282418 0.607915 0.588793 0.231454 -0.145676 0.704520 0.573378 -0.307654 -0.349891 0.012316 -0.218742 -1.216333 -0.075743 0.373693 0.162983 0.247275 -0.329318 0.041001 0.131974 0.345171 0.195953 -0.532239 0.136900 -0.630707 0.138659 0.684410 0.391004 -0.528832 0.348093 0.064217 0.505693 -0.967976 0.093052 -0.351684 0.091190 -0.313588 -0.548994 
have -0.156520 0.051810 0.500532 -0.143827 0.902290 -0.031844 -0.404732 -0.633234 -0.214535 1.256927 -0.112953 -0.320776 0.625867 -0.690525 0.051004 0.045731 0.091628 -0.204738 0.238425 0.251659 -0.010062 0.142682 0.803783 -1.259183 -0.914057 -1.239584 0.124581 -0.680518 -0.087160 0.063560 -0.445033 -0.051197 -1.044555 0.128937 -0.433397 0.106884 0.286805 -0.350903 0.611674 -0.331488 -0.356522 0.524522 0.613529 -0.754681 0.738134 0.046270 -0.106291 0.405509 -0.670319 0.030990 0.182821 0.055118 -0.288594 -0.384535 1.685925 -0.378652 0.826747 -0.197525 -0.231699 0.359581 0.557321 -0.643145 0.022555 -0.537802 -0.088757 0.460634 0.657773 -0.107849 0.773178 -0.052723 0.363754 -0.897655 0.412425 -0.213572 -0.591412 -0.226816 0.090072 0.051042 -0.002096 0.525219 0.311844 -0.039274 1.182288 -0.113575 -0.692605 0.823851 -0.525864 0.238789 0.189641 0.456206 -0.175198 -0.042445 1.208307 1.549901 -0.475090 -1.165869 -0.364171 0.183381 1.035260 -0.083466 
she 0.546997 -0.057102 -0.152177 -0.807202 0.430009 -0.172166 -0.555661 0.045188 -0.285315 1.334340 0.549986 0.208575 -0.341125 -0.081758 0.110792 0.059659 0.462209 0.127816 1.053570 0.493517 0.520266 -0.432931 0.879794 -1.329582 1.549794 -1.073967 -0.260515 -0.107432 0.287714 0.222506 0.115454 0.155325 -0.212688 -0.472109 -0.816944 -0.423213 0.847820 0.282387 -0.171737 -0.876760 -1.210167 0.253013 -0.300441 -0.489989 0.887851 0.899294 0.817744 -0.309096 -0.934670 0.070112 -0.339817 0.416516 -0.463685 0.236188 0.007705 -0.005104 1.509204 0.526059 -1.007976 0.184675 -0.421324 -0.544682 0.042507 0.254894 0.465554 0.115792 0.748125 -0.294959 0.743375 1.385367 0.242969 -0.747057 0.310024 0.371269 -0.885085 0.087280 0.137400 0.202828 0.450338 -0.855203 -0.151205 0.375445 -0.042584 -0.116370 0.083767 0.740662 -0.137345 0.634644 0.309135 0.386018 -0.480189 0.111017 -0.420435 0.119858 -0.662993 0.215973 -0.786283 0.087892 -0.720136 -0.254308 
been 1.728606 0.843495 -0.285014 0.329340 0.554811 -0.195527 -0.982678 -1.293168 0.020080 0.294282 0.522381 -0.376416 -0.781403 1.001663 0.489241 -0.760970 0.918234 -0.867972 0.311013 0.000730 0.794134 -0.929398 1.560679 -0.763118 0.850604 -0.845008 -0.103370 -0.214438 -0.424526 0.837919 -0.471527 0.416696 -0.479164 -1.009147 -0.354515 0.044009 0.777993 -0.599672 -0.320759 -1.222595 -0.622648 -0.174968 -0.270929 -0.078811 1.009938 0.946707 -0.003377 0.394689 -0.989122 0.007213 -0.498155 -0.285764 -1.350549 0.433661 1.065276 -0.726012 1.056183 -0.224339 -0.487085 -0.448587 -0.844407 -0.074729 -0.806060 -0.089111 0.248695 -0.063046 1.282719 -0.448819 0.624123 0.153340 -0.345302 0.016439 -0.351888 -0.145105 -0.520644 -0.194466 0.031487 -0.072457 -0.385264 -0.956680 0.415549 0.637415 1.522297 0.098519 -0.461254 1.089192 -0.182437 0.896791 0.141934 -0.120251 -0.276298 0.782443 -0.159382 0.848755 -0.206144 -0.402523 -1.020438 0.039159 -0.359593 0.485351 
other -0.617454 0.347435 0.501301 0.269786 0.182085 -0.481213 0.113716 -0.421105 -0.679420 0.398297 0.303286 -0.062430 -0.526210 -0.594206 0.028997 0.156953 0.188424 0.117158 -0.178693 -0.624963 -0.196233 0.176236 -0.133092 0.027671 -0.900500 0.287372 0.157234 -0.037576 -0.315630 0.362102 -0.010997 0.266863 -0.645088 0.322006 -0.182464 0.645826 0.220571 -0.215388 0.598186 -0.345780 -0.077734 0.292414 0.762524 -0.168150 0.256358 0.415359 -0.415453 0.166822 -0.541686 -0.324818 -0.396744 -0.237283 -0.199841 -0.170960 1.185934 -0.602751 -0.862678 -0.518313 -0.059216 -0.837316 0.368863 -0.152197 -0.346002 -0.561614 0.298240 0.596443 -0.034007 0.152133 0.313185 -0.891061 -0.318401 0.634571 -0.418782 -0.626078 0.274076 -0.671308 -0.168351 -0.278686 -0.376840 -0.322970 0.486209 0.147401 0.410154 0.243341 -0.544207 0.080568 -0.639438 -0.484806 0.817965 -0.411444 -0.195335 0.180835 0.393025 0.542641 0.222563 -0.175595 -0.117547 0.049281 0.206801 -0.417266 
when -0.087676 -0.292876 -0.082191 -0.374523 0.284556 0.042971 -0.445631 0.025812 -0.035699 1.044862 0.280641 0.339166 0.110384 0.072394 0.277469 0.635053 0.673516 0.543240 0.064228 0.803023 0.437609 0.199467 0.097549 -0.254607 0.398731 -0.103178 -0.159688 -0.287703 0.214764 0.141607 0.178680 0.209906 -0.203194 0.067410 -0.551940 -0.554154 -0.033177 0.366776 -0.409027 0.083269 -0.302545 0.380983 -0.738902 -0.211461 0.667156 0.148477 0.602950 0.180964 0.215076 0.041785 0.023337 -0.024594 -0.011449 0.051060 -0.239250 -0.305089 0.705953 0.134090 0.331015 -0.210527 0.154498 0.144125 0.251743 -0.221337 -0.118513 -0.039836 0.969343 -0.461632 0.471236 0.702237 0.247307 -0.525502 0.123654 0.047340 -0.425399 -0.152014 -0.431584 0.303399 0.170014 -0.045315 -0.433280 -0.048034 0.110757 -0.188711 0.063435 0.351187 -0.016732 -0.057671 0.177704 -0.238831 0.249551 0.087540 -0.094475 0.154963 -0.126416 -0.030290 -0.268056 0.399227 -0.623881 0.301521 
all 0.390028 0.066506 0.010918 0.029449 0.010285 -0.113577 -0.377178 -0.241270 -0.321422 0.288329 0.248969 0.209638 -0.427352 -0.178592 0.244754 0.170718 0.322633 -0.148621 0.046916 -0.282232 -0.016987 0.084919 -0.205691 -0.425905 -0.473493 -0.299459 -0.129297 -0.039677 0.196815 0.003287 -0.283976 0.584606 -0.538938 0.054626 -0.178454 0.412625 -0.079481 -0.111520 0.321103 -0.369031 0.041606 0.442961 -0.063318 -0.017329 0.055942 0.154608 -0.201825 -0.069745 -0.368091 -0.204792 -0.149319 0.124874 -0.060626 -0.474009 0.048855 -0.168492 -0.484500 -0.317915 -0.101138 -0.715593 0.121148 -0.057137 0.292012 -0.298183 0.165558 0.340730 -0.529333 0.111259 0.331335 -0.251696 0.225880 0.191596 -0.405374 -0.443277 -0.175001 -0.231288 0.012543 -0.257869 -0.087901 -0.155131 -0.269827 0.160109 -0.370794 -0.308606 -0.400592 0.073559 -0.262549 -0.229376 0.600138 -0.054887 -0.441831 0.355884 -0.130862 0.528233 0.175121 0.123375 0.171776 0.144899 -0.132698 -0.406933 
time 1.062404 -0.603200 0.265635 -0.506053 -0.425320 -0.161321 -0.094824 -0.420043 0.020251 0.672428 0.215955 -0.518974 -0.638864 -0.356650 0.550571 -0.023564 1.031966 -0.324669 0.396276 0.055506 -0.017064 0.249677 -0.059682 -0.707853 -0.068394 -0.314729 -0.233645 -0.025561 0.434021 0.754024 -0.190456 0.445344 -0.508282 -0.356302 -0.526465 0.227396 0.373390 -1.041584 -0.731071 -0.688222 -0.142618 0.421630 -0.777373 0.099586 -0.097729 0.979559 0.193445 0.288991 -0.870650 -0.567379 0.292532 -0.253698 -0.626630 -0.755847 -0.083541 -0.032051 0.698582 -0.346341 -0.352407 -0.150662 0.055177 -0.518889 0.613048 -0.033367 0.489525 0.405194 -0.311839 -0.390274 0.127998 0.132223 0.230399 -0.038425 -0.367601 -0.363687 0.093888 -0.317575 0.011110 0.212365 0.011910 -0.853286 -0.043485 0.570117 -0.074106 -0.114126 0.172209 0.623426 -0.134169 0.155674 0.423321 -0.443413 -0.247124 0.120088 0.225337 0.342808 0.570965 0.075636 -0.325372 0.429800 -0.174522 -0.032790 
during -0.261808 -0.875479 0.212617 -0.214328 -0.302302 -0.119268 0.366523 0.127957 -0.131908 1.102289 0.240359 -0.043688 0.311472 -0.164342 -0.249702 0.638000 0.486828 0.646369 0.897686 0.675131 -0.452151 0.603873 -0.261290 0.044080 0.008252 0.051787 -0.076372 -0.032307 0.255151 0.461501 0.184959 -0.042320 0.225738 0.322410 -0.353986 -0.450849 -0.101902 -0.169216 -0.443297 0.181616 -0.073617 0.105266 -0.175638 -0.475914 0.186270 -0.027366 0.414650 -0.077161 0.553863 0.041321 0.647155 -0.314433 -0.041624 -0.159412 -0.635183 0.047081 0.516146 0.304183 0.587471 -0.270804 0.538168 -0.127123 0.491630 0.202795 0.304182 0.358020 0.256928 -0.264062 0.060218 0.565766 -0.037606 -0.252511 0.597357 -0.248327 0.089112 -0.108518 -0.539555 0.492895 0.199637 -0.038700 0.059726 0.126883 -0.430333 -0.151139 0.330559 0.326942 0.228306 0.065192 0.190308 -0.655886 -0.031514 -0.003039 0.119756 -0.000722 0.204815 0.009261 0.258519 0.235111 -0.219175 0.305351 
into -0.419277 -0.301613 0.065233 -0.075180 0.221271 -0.066491 -0.078190 -0.086752 -0.349247 1.198315 0.020581 0.285323 0.194674 -0.317257 0.011907 0.377530 0.545077 0.827954 0.077731 0.498959 -0.305635 -0.035370 0.024840 -0.130515 0.572782 0.348364 -0.205906 0.156137 -0.122598 0.123513 0.410967 0.299806 -0.290473 0.453833 -0.194687 -0.169092 0.136879 0.504803 0.481734 0.381937 -0.192391 0.446530 -0.112503 -0.248554 0.437656 -0.137159 0.206323 0.057053 0.468223 -0.098543 0.826193 -0.188878 0.047932 0.255696 0.147091 -0.308532 0.493405 0.448082 0.063732 -0.030322 0.566375 -0.098361 -0.128801 0.157845 0.148918 0.220841 0.569182 -0.489286 -0.001760 0.574022 0.430097 0.442333 0.391959 -0.266925 -0.220964 -0.050820 -0.460296 0.847020 -0.406963 0.178003 0.005085 -0.102187 0.143294 0.251676 0.414431 -0.018608 -0.031355 -0.156890 0.297767 0.107562 0.237768 0.055624 0.189065 -0.081874 -0.145341 0.196124 0.057712 0.277983 0.337295 0.540891 
there -0.134814 -0.301031 -0.357692 -0.350074 0.428596 -0.171032 -0.681332 0.378920 -0.979375 1.190703 0.858777 0.355950 -0.738718 -0.936418 0.574080 1.130458 0.852052 0.288951 0.093025 0.745204 0.704110 -0.074632 0.200364 -1.233801 0.743275 -0.202106 -0.409218 -0.118039 -0.551709 0.140430 0.132921 0.413981 -0.869991 -0.318276 -0.947845 -0.433336 0.221314 0.523486 -0.213140 -0.822361 -0.545991 0.564578 -0.241305 0.092813 0.499427 0.592523 0.300623 0.228232 -0.867082 -0.127258 -0.425622 0.386254 -0.028179 0.212750 0.317913 -0.251665 0.372355 0.086125 -0.532688 -0.383413 0.266627 -0.261689 0.314593 0.011843 0.435691 0.103720 0.789330 0.031541 1.111574 0.733778 -0.021800 -0.102459 0.135021 0.125885 -0.598569 -0.157860 -0.056445 0.368848 -0.243988 -0.113607 -0.382987 0.307623 -0.665107 0.062959 0.172088 0.330222 -0.469968 -0.710057 0.638637 0.190149 -0.045288 0.535776 -0.350543 -0.015738 -0.223357 0.537889 -0.514844 0.102313 -0.525907 -0.670306 
more -0.113316 0.568967 0.215150 0.184674 0.811832 0.249013 -0.361052 -0.267300 -0.637537 0.145505 0.230751 -0.028983 -0.826063 -0.811536 0.193209 0.035572 0.465288 -0.323637 -0.650354 0.015764 0.133009 -0.128409 0.605387 -0.627643 0.034864 0.020644 0.087021 -0.033920 -0.343526 0.156721 0.023692 0.250506 -0.952834 -0.104493 -0.332372 0.479013 0.388974 -0.101840 0.510755 -0.722987 -0.147775 0.179665 0.255214 0.274251 0.145954 0.438708 -0.191399 0.568393 -1.004430 -0.770488 -0.495113 -0.028939 0.014437 0.375088 1.133906 -0.767146 0.108749 -0.378676 -0.658278 0.080916 0.134607 -0.270095 -0.589308 -0.256923 0.094356 0.137196 0.495832 0.053720 0.770986 -0.205304 0.162281 0.473575 -0.102122 -0.033181 0.019160 -0.283954 -0.017230 0.174181 -0.740525 -0.229329 0.435629 0.366338 0.591177 0.617360 -0.069273 0.469553 -0.579813 -0.313890 0.431804 0.205274 0.000319 0.436165 0.067503 0.055652 0.668969 0.168909 -0.561643 -0.017183 0.089300 -0.322773 
may 0.470175 -0.559762 0.133740 -0.897746 -0.224204 -0.401057 -0.634764 -0.527067 -0.045284 0.921228 -0.230955 0.717272 -0.909712 0.449946 -0.428397 0.222041 0.127347 0.711059 -0.130142 0.624749 0.607987 -0.201907 0.533180 -0.017249 0.106714 -0.435066 0.444706 0.291167 -0.731864 0.018450 0.234511 0.440299 -1.075854 0.113614 0.247983 0.014880 0.478191 0.130819 0.991066 -0.405299 -0.564292 0.581789 -0.831194 0.359918 0.304721 0.626553 -0.505158 0.417114 -0.284167 -0.441348 -0.300412 0.107493 0.549970 -0.018533 0.378224 0.227322 0.765121 -0.251853 -0.073196 -0.606810 -0.402434 -0.415296 -0.515435 -0.941653 -0.270613 0.793170 0.130817 -0.670027 -0.207257 0.524916 0.087692 0.557491 -0.118189 0.156122 -1.157857 0.194056 -0.330334 0.543234 -0.275131 0.341008 -0.374433 -0.316984 0.782888 0.529263 0.046257 0.535643 0.163742 -0.198301 0.471301 -0.005991 0.449640 0.249513 0.116871 -0.613598 -0.454994 -0.543420 0.002605 0.936898 -0.323451 0.484482 
over -0.052004 -0.073070 0.122784 -0.115437 -0.010662 0.320824 -0.438816 -0.307011 -0.485816 0.840461 0.395905 0.374680 -0.330848 -0.151665 -0.060579 0.111479 0.546538 0.444389 0.059069 0.407513 -0.200201 0.128039 0.397122 0.128744 0.052324 0.051922 0.066243 -0.022170 -0.160410 0.218017 0.223336 0.468267 -0.532360 0.464089 -0.141240 0.236760 -0.086276 -0.137467 0.678572 -0.013039 0.025072 0.250521 0.021777 -0.110378 0.530618 0.059175 0.117691 -0.043360 -0.093582 -0.575629 -0.217840 -0.157558 0.289493 0.073607 0.264393 -0.422439 0.186076 -0.187080 0.367921 -0.205422 0.337888 -0.310832 -0.029521 -0.135574 -0.001075 0.150698 0.032392 -0.122807 0.337286 0.195827 0.421283 0.797026 0.239937 -0.352717 -0.098371 0.092839 -0.515981 0.466576 -0.277811 0.249449 0.111904 0.070691 0.044899 0.394425 0.276496 0.490545 0.109529 -0.160495 0.738123 -0.200941 -0.210052 0.350925 0.136350 -0.275871 0.375029 0.025401 0.329382 0.167633 -0.413434 -0.143740 
only 0.548780 -0.008138 0.084228 -0.334423 -0.022429 -0.038579 -0.231475 -0.136464 -0.107076 0.770157 0.205975 0.192652 -0.439112 -0.388580 0.398340 -0.100025 0.779102 0.121726 -0.095515 0.166171 0.021248 -0.148506 0.284191 -0.649896 0.188629 -0.282260 -0.088476 -0.007131 -0.123558 0.326421 0.233313 0.363035 -0.367518 -0.325263 -0.115590 0.100767 0.205225 -0.179330 0.146691 -0.356294 -0.323353 0.073937 -0.166116 -0.062597 0.461624 0.373689 -0.056137 -0.215625 -0.521315 -0.429897 0.067417 -0.343861 -0.258976 -0.292031 0.539105 -0.406338 0.436171 -0.343752 -0.221270 0.241383 0.001051 -0.093027 -0.264214 0.106911 0.437552 0.119286 0.222396 -0.187622 0.265242 0.148939 0.436579 0.244019 -0.029567 -0.108565 0.028375 -0.341259 -0.021916 0.526672 -0.112172 -0.132809 0.242588 0.161210 0.355079 0.321227 0.077333 0.285617 -0.358183 -0.123865 0.290004 0.326668 -0.293568 -0.020306 -0.147444 -0.018789 0.251518 -0.080330 -0.085714 0.365927 -0.218503 -0.183284 
up 0.534833 0.155543 0.220248 -0.246261 0.192914 0.075552 -0.659766 -0.579146 -0.124469 0.552817 0.241156 0.389317 -0.524265 0.185058 -0.117395 -0.113855 0.303676 0.130877 -0.163910 -0.368554 -0.128590 -0.243264 0.289494 -0.337121 0.228986 -0.384615 0.192787 -0.009113 0.331904 0.022061 -0.112183 0.267926 -0.556968 -0.041239 -0.118695 0.275786 0.211707 0.012119 0.905391 -0.356413 -0.460098 0.436322 -0.268811 0.046406 0.401827 0.331259 0.152496 0.017983 -0.373325 -0.288923 -0.087074 0.139587 0.157690 0.410016 0.231486 -0.215620 0.409248 -0.251237 -0.533390 -0.334882 -0.008086 -0.130818 -0.456715 -0.158418 0.034993 0.271913 0.104018 -0.375880 -0.022448 0.332443 0.651014 0.457205 -0.334015 -0.259702 -0.350824 -0.209772 -0.370098 -0.054126 0.087680 -0.378078 -0.015306 0.012036 0.517928 -0.308159 -0.331825 0.485171 0.169934 0.390287 0.687346 0.086319 -0.177988 0.233514 -0.094236 0.174281 0.002238 -0.047498 -0.071011 0.211818 -0.100085 0.012988 
would 0.584127 -0.609947 0.435478 -1.129747 -0.428616 -1.417080 -0.312570 -0.897201 0.249324 1.492113 -0.491051 0.095670 -0.420497 0.359673 0.141221 -0.106086 0.497812 0.918813 -0.398153 0.230133 0.293692 -0.301155 -0.391825 -0.124292 0.002284 -0.061748 -0.057007 0.113489 -0.469768 0.608112 0.359291 0.857015 -0.927509 -0.039442 0.173002 0.004490 0.707299 -0.017998 0.473176 0.065333 -0.704921 0.866787 -0.768099 -0.007664 0.317505 0.775514 -0.330566 0.194962 -0.083125 -0.053863 0.873373 -0.311432 0.022276 -0.683597 0.730193 -0.051672 0.506555 -0.193659 -0.004132 -0.668325 0.015409 -0.233350 -0.355306 -1.103220 0.333448 1.118682 0.257727 -0.868321 -0.725755 0.112361 0.326750 0.453039 -0.387365 -0.497041 -0.494978 -0.455672 0.035528 0.785182 -0.263011 0.217932 -0.478728 -0.507352 0.829287 0.618004 -0.116678 -0.235401 -0.545433 -0.201263 0.437269 -0.246911 0.794560 -0.395096 0.666535 -0.077811 -0.801012 -0.544118 0.099102 1.064069 0.445790 1.035820 
most 0.087253 0.054939 0.027389 0.657082 0.194783 -0.343605 0.057118 0.000049 -0.302422 0.439524 -0.095636 -0.188831 -0.444686 -0.132024 0.331087 -0.130258 0.625956 -0.056013 -0.073553 -0.095638 -0.252057 0.017521 0.093351 -0.532790 0.002500 0.199068 -0.578870 0.123581 0.076625 0.229722 0.343763 0.353487 -0.295779 -0.252563 -0.213111 0.406601 0.506945 0.023993 -0.264074 -0.178643 -0.161547 0.298583 0.140193 -0.133423 -0.014009 0.599742 -0.447030 -0.215203 -0.262614 0.066152 0.164705 -0.569809 -0.441124 -0.247300 0.401922 -0.244501 -0.254511 0.080528 -0.091237 -0.119104 -0.052543 -0.152691 -0.446818 0.002081 0.039529 0.497206 0.189033 -0.422670 0.296179 -0.368868 0.029318 -0.070069 -0.074199 -0.295570 0.211192 -0.477307 -0.239560 0.379248 -0.397218 -0.602993 0.112520 0.408963 0.372386 0.223704 -0.068987 0.298962 -0.312228 -0.238928 0.272790 0.426265 -0.104555 0.197090 -0.378405 0.514799 0.556002 0.117596 -0.261490 0.296647 -0.052617 -0.093827 
school -0.217400 -0.369490 0.138802 0.776258 -0.318125 0.298739 0.300819 0.119224 -0.017082 -0.643343 0.033154 -0.162027 -0.512120 -0.389552 -0.125794 0.524402 0.478657 -0.306622 0.244525 -0.185872 -0.328432 0.654642 0.310732 0.225011 0.059934 0.298509 0.121069 0.843690 0.096211 -0.167840 -0.159530 -0.316456 0.158244 -0.074182 0.113387 -0.116506 -0.147611 -0.462720 -0.613368 -0.220410 -0.012717 -0.235600 -0.030490 0.537380 -0.172002 0.210327 -0.270847 0.067671 0.084731 -0.120504 -0.261044 -0.392585 -0.325453 0.030337 -0.415780 -0.031567 -0.141471 -0.126984 -0.113436 -0.025300 -0.332229 -0.259393 0.055492 0.366407 -0.148303 0.014788 0.109709 0.055044 0.006942 -0.154333 -0.543254 0.047611 -0.050687 0.187576 0.384430 -0.110989 -0.336339 -0.077285 -0.173826 -0.656857 0.241408 0.557088 -0.248797 -0.393389 0.718753 0.504859 0.587218 -0.059991 -0.213533 0.003050 0.007485 0.089827 -0.506711 -0.033492 0.739824 0.140805 -0.395013 0.119969 -0.295196 -0.195484 
out 0.846133 0.162093 0.154212 -0.069241 0.287001 0.134105 -0.826456 -0.656434 -0.142936 0.518633 0.048029 0.417125 -0.518816 0.128698 0.261603 -0.131555 0.549988 -0.177287 -0.044630 -0.076066 -0.017090 -0.179156 0.420231 -0.652457 0.335217 -0.580493 -0.238847 0.166873 0.392614 -0.165371 -0.137654 0.698648 -0.948565 0.083867 -0.069067 0.570689 0.202484 -0.012028 0.677061 -0.240046 -0.251532 0.826935 -0.530923 0.097791 0.253197 0.363232 -0.040579 0.020947 -0.489719 -0.340784 0.045244 0.107350 0.206058 -0.150576 0.130864 -0.206970 0.233308 -0.097286 -0.516279 -0.327651 -0.132313 -0.538710 0.054486 -0.405471 -0.208357 0.416389 -0.196670 -0.378018 0.348197 0.346791 0.788093 0.264145 -0.318748 -0.240851 -0.510093 0.001148 -0.098193 0.132118 -0.298976 -0.136920 -0.536674 0.117053 0.139604 -0.260986 -0.118504 0.476707 -0.051159 0.183480 0.626720 0.412507 -0.116522 0.434156 -0.164138 0.419303 0.240254 0.124134 -0.067847 0.521063 -0.034945 0.113725 
years 0.310527 0.322124 0.139030 0.169796 -0.124239 0.440934 -1.204454 -0.921871 -0.751821 0.577968 0.834684 0.149104 -0.332507 -0.034236 0.213179 -0.224691 0.665920 -0.445746 0.520824 -0.134413 0.137253 0.391828 0.670171 0.355970 -0.080385 -0.366295 0.198694 -0.033724 0.159626 0.030918 -0.429724 0.675511 -0.944538 0.313753 -0.032407 0.300749 -0.646765 -0.680451 0.846347 -0.423661 -0.192296 0.597794 -0.122453 0.216556 1.047366 0.161801 0.341591 -0.566671 -0.048097 -0.515650 -1.045604 -0.061426 0.713718 -0.495245 -0.070806 -0.648828 -0.151981 -0.381377 0.268951 -0.678821 0.075695 -0.660119 0.512669 -0.294809 -0.219098 -0.120918 -0.234124 0.324799 0.637666 0.250266 0.812162 0.853067 -0.103041 -0.550749 0.157521 -0.182453 -0.440577 -0.341031 -0.130185 -0.291130 -0.312845 0.194221 -0.864148 -0.182538 0.217122 1.095389 0.388548 -0.342188 0.961202 -0.364450 -0.529295 0.535917 -0.310418 0.014440 0.513221 0.026825 0.369008 0.096434 -1.165728 -0.480292 
where -0.007257 -0.299945 0.033824 -0.034014 -0.005235 0.113882 -0.307724 0.003654 0.242051 0.175544 0.178920 0.379563 0.342047 0.094298 0.319783 0.970631 0.531639 0.259860 -0.094532 0.219439 0.158961 0.483690 -0.267962 -0.046869 0.002292 -0.193309 0.026046 0.016973 0.481927 -0.145451 -0.188415 -0.148298 0.023541 0.117132 -0.239623 -0.645627 -0.520635 0.186487 -0.515770 0.242176 -0.126695 0.194882 -0.744826 0.099258 0.414056 -0.250809 0.465813 0.150349 0.618186 0.288106 0.180745 -0.069420 -0.073270 0.005089 -0.486933 -0.220095 0.227958 -0.141124 0.290337 -0.361369 0.113292 0.367489 0.521971 -0.044714 -0.256006 -0.211692 0.788250 -0.226147 0.112197 0.416169 0.217188 -0.704098 -0.315920 0.023260 -0.096241 -0.271794 -0.468318 -0.258563 0.467860 -0.037610 -0.440112 -0.084886 -0.065818 -1.023503 -0.046880 0.170676 0.287740 0.101824 -0.059357 -0.318519 0.299260 -0.045483 -0.188664 0.512339 -0.034811 -0.163675 -0.146459 0.448290 -0.304816 0.347043 
later 0.049163 0.035365 0.125979 -0.528216 0.436877 0.137477 -0.343664 -0.159370 0.064108 0.682757 0.331895 -0.189554 -0.257884 -0.082156 0.241139 -0.045790 0.466366 -0.099966 0.367247 0.340533 0.373016 0.080852 0.449410 -0.380318 0.214747 -0.223735 -0.276584 -0.413858 0.667299 0.601629 -0.163288 0.155657 -0.525563 0.039363 -0.740891 0.010173 0.571464 -0.492642 -0.502257 -0.326284 -0.347173 0.268951 -0.270348 -0.223431 0.604028 0.719406 0.739096 0.155331 -0.928191 -0.285305 -0.600699 -0.001517 0.043382 -0.209140 -0.037386 -0.317958 0.749472 0.001446 0.017764 0.110488 -0.008702 -0.600409 0.234241 -0.203165 -0.297517 0.034136 0.303795 -0.269498 0.596966 0.144394 0.076929 -0.553113 0.306106 -0.157930 -0.245014 0.145728 -0.120041 -0.160523 -0.001796 -0.688923 -0.225473 0.299592 0.248498 0.069239 -0.061525 0.875975 -0.226457 0.330465 0.492845 -0.270575 -0.096884 -0.142565 0.382751 0.292164 0.300100 0.216939 -0.612977 0.128693 -0.524934 -0.414066 
three 0.104507 0.232177 0.205716 0.100399 0.410239 0.383498 -0.118965 -0.147466 -0.386161 -0.053845 0.270167 -0.156801 -0.323765 -0.353601 0.095261 0.134240 0.213556 -0.520469 0.118236 0.039887 -0.179989 0.246337 0.289102 -0.482102 -0.648753 -0.365760 -0.063431 -0.353154 0.261044 0.201435 -0.411556 0.055115 -0.548639 0.340250 -0.409368 0.474823 0.041731 -0.697043 -0.031978 -0.493713 0.477704 -0.067528 0.254975 -0.061435 -0.048707 0.119111 0.100261 0.341139 -0.704258 -0.537038 -0.585718 0.152528 -0.001445 -0.216284 0.272401 -0.302885 -0.033832 -0.290879 0.116244 -0.173211 0.319290 -0.337939 0.446118 -0.261530 -0.164002 0.135965 -0.380856 0.323591 0.659224 -0.460215 -0.013933 -0.171659 0.061455 -0.197443 0.076474 0.181995 0.009882 -0.352361 -0.227009 -0.009003 0.192016 0.447548 0.031220 -0.065252 -0.348442 0.624769 -0.291154 0.160713 0.459038 -0.457622 -0.379590 0.406617 0.538601 0.567330 0.635488 0.128895 -0.012476 -0.267019 0.093980 -0.736496 
between -1.032248 -0.518955 0.497336 -0.269141 0.312991 0.098404 0.190689 0.135439 -0.466351 0.850367 0.302123 0.498044 -0.266895 -0.585126 -0.562477 1.082228 0.288058 0.910244 0.531128 0.575903 -0.548218 0.671133 0.108753 0.172804 -0.071023 0.120358 0.059765 0.260854 -0.051745 0.247486 0.235934 -0.126567 -0.448637 0.989712 -0.266451 -0.118127 0.088517 0.052263 0.250803 0.072451 -0.135368 0.019014 0.312244 -0.220322 0.401327 -0.000670 0.139968 0.026834 0.143099 -0.362442 -0.168168 -0.179480 0.372962 0.219684 -0.033311 -0.355427 0.091797 0.125498 0.463232 -0.361080 0.604929 -0.435663 0.169656 -0.126724 -0.173746 0.582642 0.326614 -0.101973 0.516740 0.101665 -0.262535 0.100163 0.809019 -0.214023 -0.124139 0.184649 -0.724489 0.316904 -0.252455 0.216754 0.271981 -0.058317 -0.087688 0.129368 0.317168 0.622249 -0.104872 -0.175460 0.602903 -0.313014 0.096855 0.020108 0.333043 -0.041616 0.483955 0.255780 0.075714 0.408725 -0.066924 -0.257685 
. -1.244566 0.736883 0.242001 0.806482 1.159719 0.491451 0.356945 -0.384723 0.359471 -0.111514 0.236243 -0.267962 0.289764 0.209834 -0.554282 -0.080400 -0.494860 -0.739541 0.775419 0.112524 -0.053555 0.222346 0.932594 0.794550 0.216019 0.650206 0.357995 -0.091572 0.562796 0.065346 -0.579630 -0.162424 0.246708 -0.038717 -0.169676 -0.067174 -0.104950 -0.087098 -0.659660 -0.014469 -0.367276 0.007987 0.237850 -0.397937 0.732617 -0.288178 0.294491 0.096895 -0.304048 0.088214 -0.614903 -0.129060 -0.318892 0.309547 -0.262775 -0.579736 -0.401165 0.434413 0.191238 -0.130226 -0.393711 -0.267419 -0.269744 -0.428446 -0.216082 -0.444200 0.804846 0.172450 0.795274 -0.255919 -0.967306 -0.414371 0.432773 -0.340369 -0.085631 -0.075974 -0.219701 -0.805886 -0.812246 -1.374327 0.259653 0.314352 -0.131061 0.106010 0.097366 0.408624 0.088436 -0.096195 -0.239979 -0.271352 -0.664678 -0.148123 -0.402207 0.431868 0.328144 0.538444 -1.064090 -0.334086 -0.629397 0.269373 
year 0.517780 -0.670109 0.256853 -0.294768 -0.401039 0.349242 -0.209109 -0.404440 -0.104589 0.662109 0.266909 -0.123492 -0.096949 -0.388776 0.120487 0.266410 0.863396 -0.436599 0.646836 0.531620 -0.129672 0.627685 0.380660 -0.103085 -0.025202 -0.413429 0.153790 0.086413 0.062026 0.233016 -0.322710 0.081253 -0.420270 0.031370 0.094183 -0.185640 -0.634636 -1.120451 -0.298169 -0.335397 0.127002 0.234040 -0.871730 0.305258 0.230537 0.162455 0.205622 -0.002137 -0.100479 -0.653713 -0.041570 -0.274393 0.176385 -0.650950 -0.447350 -0.102203 0.506864 -0.198865 0.340009 -0.042832 0.041628 -0.634677 1.029328 -0.129599 0.291885 0.045064 -0.230554 0.130614 0.195215 0.397664 0.318047 0.350089 0.098207 -0.149836 0.080729 0.080431 -0.152841 0.165088 -0.073325 -0.165459 0.003133 0.391518 -0.888395 -0.081582 0.757128 0.876790 0.306491 -0.174361 0.133839 -0.425764 -0.292058 0.288881 0.153177 -0.124150 0.637742 0.081989 0.197687 0.324408 -0.504643 -0.188689 
some 0.477691 0.273337 0.051452 0.215531 0.157773 -0.569159 -0.309646 -0.286208 -0.339339 0.047252 0.041707 0.009560 -0.746103 -0.140227 0.253241 -0.032919 0.126856 -0.365730 -0.193513 -0.575131 0.181791 -0.208368 -0.037306 -0.578058 -0.074343 -0.234183 -0.210751 0.187181 -0.038644 -0.051373 -0.221209 0.397181 -0.658141 -0.234638 -0.022654 0.441016 0.375479 -0.024810 0.357744 -0.610170 -0.181633 0.465471 0.056162 0.192855 -0.131927 0.483970 -0.429708 -0.057470 -0.556401 -0.025048 -0.180105 0.057069 -0.031805 -0.223544 0.334635 -0.084167 -0.402338 -0.048689 -0.642368 -0.656247 -0.168990 -0.198475 -0.216383 -0.352944 0.081137 0.519447 -0.294374 0.006117 0.187518 -0.284152 0.027914 0.185417 -0.504771 -0.259398 -0.151745 -0.293733 0.181278 -0.290887 -0.305737 -0.355401 -0.133333 0.135275 -0.010671 -0.124281 -0.468465 -0.003309 -0.389415 -0.208861 0.388349 0.188721 -0.025185 0.293344 -0.275019 0.480814 0.018987 0.173545 -0.077415 0.196680 0.090634 -0.303485 
then 0.052990 0.007792 0.168095 -0.508948 0.401896 0.060485 -0.350251 -0.250480 0.184605 0.478310 0.352835 0.300638 -0.162660 0.080789 0.028639 0.274734 0.294817 0.212432 0.133493 0.059067 0.196782 -0.083371 0.201813 -0.313734 0.312414 -0.255454 -0.053631 -0.100037 0.473503 0.284109 -0.087684 0.084043 -0.384238 0.083148 -0.416492 -0.022965 0.370500 0.010659 -0.003404 -0.105866 -0.517611 0.315457 -0.391185 -0.158030 0.454323 0.469109 0.511059 0.214942 -0.618981 -0.116325 -0.192457 0.192974 -0.090210 0.328132 0.085168 -0.211728 0.407150 -0.111222 -0.295142 -0.186262 -0.065809 -0.274219 0.013918 -0.197691 -0.100945 0.158736 0.382849 -0.398800 0.290207 0.285011 0.018124 -0.291866 -0.137781 -0.129447 -0.529669 0.001599 -0.239924 -0.241597 0.198419 -0.531859 -0.204554 0.001437 0.441241 -0.398657 -0.237615 0.474248 -0.042392 0.389659 0.481676 -0.010985 -0.033182 -0.059808 0.155560 0.434181 -0.072609 0.043076 -0.599164 0.405219 -0.098837 0.011019 
city 0.047665 -0.671235 0.192378 0.462345 -0.418616 -0.068971 0.222042 0.107317 -0.280499 -0.092998 0.372948 0.223356 -0.396852 -0.281969 0.091018 1.027992 0.526847 0.113688 0.688883 -0.096261 -0.634953 0.542165 -0.143190 -0.073779 0.169413 0.092361 -0.050957 0.745312 0.116238 -0.049571 -0.048101 -0.057539 -0.067976 0.051305 -0.144000 -0.080448 -0.084788 -0.064810 -0.494658 -0.083991 -0.257179 0.157733 -0.178884 0.132568 -0.290563 0.357844 -0.401865 0.077069 0.085733 0.305553 0.255279 -0.179225 -0.663562 0.124274 -0.384742 0.296321 -0.335966 -0.134412 -0.321696 -0.577883 -0.207225 -0.250428 0.414973 0.472412 0.159320 0.364839 -0.028971 -0.213801 -0.016030 0.225022 -0.299259 0.047585 -0.445709 -0.283509 -0.040146 -0.231225 -0.556748 -0.153034 0.177367 -0.865844 -0.060039 0.520197 -0.564477 -0.906078 0.484976 0.349279 0.528794 0.090510 0.342112 -0.093720 -0.387729 0.312794 -0.421183 0.294459 0.471565 0.273142 -0.362248 0.389220 -0.064245 0.103580 
under -0.480208 -0.219590 0.143417 0.010401 -0.095265 0.085847 0.100387 -0.098176 -0.336743 0.799177 0.363295 0.052942 0.082663 -0.216760 -0.075430 0.233192 0.464108 0.689236 0.419958 0.434023 -0.252653 0.359130 0.014000 0.374715 -0.053058 0.374051 -0.026917 -0.026526 -0.130564 0.372515 0.328041 0.277743 0.005670 0.428516 -0.252939 -0.010397 -0.086605 0.041274 0.035142 0.255343 -0.030505 0.116857 0.321133 -0.429937 0.546227 -0.084136 0.167735 -0.116395 0.286680 -0.191834 0.118436 -0.359042 -0.068258 -0.152046 0.081814 -0.405202 -0.014762 -0.054028 0.585756 -0.203029 0.451928 -0.111227 0.062853 0.052057 0.169344 0.129376 0.316920 -0.143727 0.303636 0.081464 -0.031664 0.355724 0.493399 -0.343106 0.164582 -0.198296 -0.431756 0.545305 -0.252531 0.116451 0.116079 0.055503 -0.082831 0.343898 0.249794 0.161078 -0.063672 -0.306438 0.425618 -0.331359 -0.134513 0.054897 0.106741 -0.156322 0.227799 -0.050388 0.193607 0.091256 -0.293497 0.164845 
him 0.748514 0.202863 0.481017 -0.415519 0.538931 -0.420625 -0.425263 -0.896804 0.268232 0.600275 -0.014994 -0.149398 -0.624161 0.422955 -0.136087 -0.449309 0.144050 -0.350958 -0.084790 -0.535614 -0.078914 -0.425233 0.338789 -0.623548 0.292781 -0.471401 0.037276 -0.196145 0.632491 0.410379 -0.299963 0.171743 -0.678343 -0.435919 -0.245159 0.344148 0.828071 -0.353863 0.293904 -0.601581 -0.751699 0.555036 -0.443750 -0.020780 0.243586 0.865013 0.180088 0.237145 -0.957252 -0.059852 0.057874 0.102818 -0.236951 0.307259 0.391905 -0.055469 0.643620 -0.152536 -0.913303 -0.302990 -0.297183 -0.379745 -0.586952 -0.550647 0.094493 0.600733 0.243539 -0.587681 -0.108067 0.127779 0.303790 -0.085186 -0.472496 -0.410470 -0.369107 -0.348436 -0.116728 -0.348491 0.032916 -1.081795 -0.045762 0.170654 0.939626 -0.297278 -0.604662 0.647083 -0.117498 0.798369 0.561389 -0.015012 -0.083790 0.007698 0.241902 0.696540 -0.115928 0.055342 -0.656171 0.260744 0.280017 0.199220 
about -0.143164 0.071067 0.019298 -0.033436 0.248871 0.524688 -0.285062 -0.200435 -0.239279 0.647768 0.246009 0.399561 -0.310290 -0.479693 -0.115889 0.270336 0.483286 0.208083 -0.006927 0.325585 0.081309 0.116229 0.401872 -0.135123 -0.062624 -0.078597 0.282142 0.038352 -0.110073 -0.159456 -0.041788 0.265369 -0.427240 0.254472 -0.117241 0.079777 -0.261963 0.111689 0.684750 -0.184765 0.025569 0.259459 -0.258641 0.050293 0.481453 -0.194945 0.000664 0.210515 -0.098135 -0.733991 -0.087565 -0.008703 0.177700 0.019662 0.244612 -0.505651 0.264470 -0.118674 0.024086 -0.149598 0.225695 -0.069646 -0.094476 -0.104881 0.175842 -0.021817 0.130761 -0.034438 0.435070 0.278193 0.276832 0.645602 0.173201 -0.024314 -0.361966 0.033497 -0.249475 0.340143 -0.451526 0.179921 0.133243 0.054507 0.039838 0.259190 0.186318 0.304605 -0.067149 -0.386727 0.218117 0.025977 -0.293044 0.323738 -0.126035 -0.214519 0.289381 -0.068176 0.066184 0.102966 -0.291258 -0.077976 
such -0.402545 0.207562 -0.087294 1.240438 0.167123 -0.786857 0.223555 -0.296067 -0.394811 0.540776 -0.016504 -0.855833 -0.490203 -0.240760 -0.085343 -0.473615 0.106451 -0.896150 0.048150 -0.588994 -0.046537 -0.078788 0.589408 -0.162020 -0.059710 0.734249 0.082239 -0.145364 -0.712457 0.354706 -0.144834 -0.049216 -0.206782 -1.137963 0.016519 0.200236 0.270598 -0.435435 -0.251709 -0.539672 -0.371876 0.356723 0.321150 0.122936 -0.066225 0.623003 -0.872145 0.149092 -0.756053 0.207647 -0.072838 -0.599093 -0.660051 0.402179 0.985746 0.032298 -0.564626 0.178655 -0.258626 -0.121934 -0.204306 -0.228241 -0.810136 0.047848 0.618031 0.224422 0.245445 -0.172613 -0.080609 -0.752329 -0.700228 1.090581 -0.181877 -0.676560 0.181712 -0.625771 -0.054792 -0.091545 -0.542623 -1.218186 0.775577 0.565699 0.258864 0.589868 0.213870 0.300476 0.169588 -0.477022 0.039837 0.273564 -0.427665 0.318860 -0.020627 0.286576 0.188630 0.151273 -0.507558 -0.470601 0.100855 -0.244697 
while -0.214367 -0.124994 0.069639 -0.089102 -0.083798 0.197271 -0.030814 -0.107402 -0.080094 0.528988 0.183422 0.190322 -0.057570 -0.318046 0.087979 0.209924 0.468648 0.288951 -0.002830 0.229578 0.081860 0.165505 0.126283 0.169479 -0.062458 0.198439 0.184361 0.055873 -0.135544 0.132179 0.126392 0.121971 -0.084226 0.115619 -0.078637 -0.115832 -0.229014 -0.063652 0.106672 0.014224 -0.057958 0.084068 -0.263786 -0.013100 0.450314 -0.001382 0.070428 0.050520 0.132477 -0.382625 -0.012447 -0.258378 -0.145681 -0.135542 0.182096 -0.370948 0.187587 -0.148291 0.210082 -0.099224 0.126209 0.071914 -0.009039 0.005463 0.215491 -0.087104 0.298404 -0.138815 0.131892 0.112610 0.056442 0.354270 -0.046035 -0.081195 -0.025620 -0.201867 -0.321407 0.254437 -0.161497 -0.121610 0.205560 0.016121 0.135774 0.155852 0.225630 0.166829 -0.013708 -0.340864 0.094332 -0.140485 -0.110772 0.017684 -0.054763 -0.110922 0.153461 -0.148367 -0.056232 0.224772 -0.336022 0.104778 
made 0.141677 0.027627 -0.119921 -0.106200 0.252750 0.135204 -0.540838 -0.411433 0.037251 0.582047 0.289836 0.049076 -0.312404 -0.209582 0.315315 0.095101 0.714877 0.092119 -0.108388 -0.012414 0.592854 -0.102104 0.151742 -0.112423 0.468306 0.236207 -0.134849 0.153154 0.350889 0.161984 -0.149049 0.264377 -0.593486 -0.035356 -0.432026 -0.072679 0.184117 0.072786 0.258026 -0.183628 -0.336360 0.744788 -0.743906 0.295891 0.595509 0.419957 0.481289 0.341304 -0.218634 -0.392670 0.093281 -0.063563 0.193006 0.047104 -0.153199 -0.463371 0.558485 0.174178 -0.372362 -0.372835 0.026819 -0.258093 -0.133620 -0.047826 -0.099042 -0.045003 0.471397 -0.500952 0.176958 0.432682 0.328618 0.345419 -0.153796 -0.076078 -0.438295 -0.102538 -0.294026 0.116315 -0.491145 -0.618593 -0.373039 0.012941 0.154214 -0.080114 0.120478 0.368874 -0.005502 -0.274117 0.230975 -0.009907 0.382429 0.110351 -0.198856 0.106883 0.043250 0.112669 -0.541612 0.411617 -0.268070 0.329724 
known -0.355984 -0.102001 -0.358312 1.210814 0.371941 -0.524059 0.087794 0.119668 -0.417515 0.879791 0.121411 -0.597919 -0.372315 -0.294331 0.291211 -0.184917 0.657597 -0.742532 -0.137002 -0.038989 0.108338 -0.308297 0.680350 -0.768765 0.698043 0.663562 -0.351249 -0.116703 -0.476838 0.183111 0.362049 -0.202694 -0.139643 -1.554163 -0.318691 -0.159127 0.425636 -0.015348 -0.728626 -0.527216 -0.714065 0.438066 -0.202989 0.215687 0.082195 0.870099 -0.557445 -0.096709 -0.608813 0.327021 0.053029 -0.724381 -0.784570 0.568907 0.723060 0.118414 0.058657 0.445034 -0.530286 0.254334 -0.462252 -0.142771 -1.042814 0.380358 0.582965 0.121669 0.973841 -0.562286 0.171889 -0.022616 -0.332094 0.297181 -0.271611 -0.147609 0.169179 -0.780322 -0.368338 0.349222 -0.420610 -1.611707 0.367971 0.688253 0.280520 0.482709 0.441219 0.549994 0.299060 -0.659166 -0.156802 0.805674 -0.278705 0.309278 -0.853366 0.295954 0.208190 0.280064 -0.926654 -0.074415 -0.260525 -0.185926 
can 0.316445 -0.377413 0.423990 -0.911143 -0.127483 -1.122389 -0.091861 -0.510705 0.125440 1.167577 -0.636665 0.135740 -0.505835 -0.005874 0.170787 -0.092119 0.360589 0.796450 -0.580292 0.325243 0.180859 -0.354047 -0.128385 -0.361302 0.123632 0.002028 -0.145237 0.251126 -0.593624 0.382812 0.526334 0.670195 -0.940384 0.068578 0.177364 0.166018 0.879159 0.112168 0.472082 -0.000667 -0.512551 0.590331 -0.435837 0.025371 0.131793 0.673436 -0.489023 0.211230 -0.243219 -0.233886 0.699468 -0.356251 0.001117 -0.535460 0.951735 -0.115200 0.535877 -0.051993 -0.187918 -0.170028 0.016938 -0.297394 -0.550701 -0.873811 0.114473 1.032036 0.265580 -0.798375 -0.439744 0.014293 0.248894 0.276553 -0.163271 -0.204189 -0.420636 -0.253110 0.055920 0.933278 -0.531586 0.325912 -0.191349 -0.399657 1.065828 0.882402 -0.016544 -0.237643 -0.682863 -0.294496 0.242871 0.212655 0.764050 -0.412058 0.573298 -0.093334 -0.521872 -0.383023 -0.043654 1.035279 0.616662 0.809723 
used 0.309492 -0.159506 -0.103757 -0.028631 0.209140 -0.350422 -0.272808 -0.098552 -0.190016 0.684509 0.406272 0.099973 -1.015091 -0.367379 0.239089 0.370927 0.643015 -0.110496 -0.269898 -0.120696 0.211807 -0.311925 0.201493 -0.757193 0.223325 0.089297 -0.005060 -0.028447 -0.195724 0.321365 -0.075591 0.174573 -0.585260 -0.802338 -0.420266 0.009968 0.423888 -0.080703 -0.007300 -0.773007 -0.626002 0.357864 -0.472600 0.320294 0.169431 0.832675 -0.260520 0.322374 -1.037726 -0.191315 -0.104937 -0.019381 -0.542801 0.353243 0.500881 -0.056146 0.139322 -0.357637 -0.767839 -0.389656 -0.301026 -0.044117 -0.595125 0.039591 0.613552 0.305974 0.411871 -0.370787 0.166065 0.025730 -0.095396 0.452095 -0.534699 -0.235197 -0.425068 -0.524389 -0.241284 -0.041798 -0.240809 -1.101750 0.102156 0.450959 0.295642 -0.016286 -0.119818 0.395843 -0.134845 -0.288286 0.456618 0.252342 -0.383281 0.276417 -0.368711 0.198728 0.119081 0.229208 -0.734500 0.276547 -0.139141 -0.366231 
national -0.227887 -0.676887 0.361438 0.393240 -0.442317 0.001153 0.507281 -0.009599 -0.195207 -0.384967 0.037286 -0.119030 0.037229 0.000411 -0.198642 0.549337 0.045658 -0.088191 0.475660 -0.073496 -0.853905 0.612612 -0.346873 0.554276 -0.305780 0.349687 0.013048 0.445577 0.087295 0.101549 0.039497 -0.190001 0.186959 0.245382 0.177224 0.063281 -0.333323 -0.446828 -0.562909 0.201709 0.231705 -0.080690 -0.008827 0.116698 -0.573997 0.039712 -0.304296 -0.003674 0.452844 0.224323 0.243451 -0.264825 -0.282661 -0.020424 -0.567592 0.399782 -0.570794 -0.072282 0.271292 -0.420626 0.081680 -0.168261 0.534690 0.097971 0.024362 0.305659 -0.389176 0.072283 -0.220699 -0.176949 -0.410405 0.011983 -0.252536 -0.341711 0.493207 -0.110862 -0.507546 -0.224544 0.110890 -0.464666 0.095881 0.323708 -0.655855 -0.525226 0.409457 0.186564 0.536275 0.058603 0.176276 -0.495287 -0.200851 0.190050 -0.069871 0.186808 0.555623 0.294039 0.102766 0.100481 0.063671 0.186352 
world 0.147376 -0.820222 0.180916 -0.059674 -0.649856 0.170913 0.214487 0.032461 -0.013877 -0.163384 0.468266 -0.067455 0.040488 0.263705 -0.149495 0.645784 0.218756 0.119084 1.123167 0.278344 -0.524393 0.795927 -0.276220 0.585152 -0.118581 0.025291 0.034883 0.224566 0.270885 0.382393 -0.094676 -0.019564 0.481209 0.175363 -0.135776 -0.279780 -0.427831 -0.444506 -0.977115 0.140521 0.050813 -0.137738 -0.233445 -0.207751 -0.234780 0.297020 0.156669 -0.034838 0.292090 0.316331 -0.115053 -0.005277 -0.343224 -0.158894 -0.963291 0.415881 -0.158691 -0.187039 0.479777 -0.480156 -0.068082 -0.181291 1.041585 0.200626 0.046273 0.089094 -0.303943 0.088822 0.071880 0.312765 -0.445135 -0.313296 0.004835 -0.218505 0.191130 0.008601 -0.417824 -0.315172 0.606963 -0.551592 -0.127905 0.349350 -0.891462 -0.812342 0.339018 0.481126 0.601425 0.382598 0.297808 -0.863058 -0.346912 0.259916 -0.088758 -0.010812 0.447766 0.116214 -0.008932 0.027288 -0.649749 0.155197 
many 0.008388 0.454426 0.067331 0.506453 0.364491 -0.416349 -0.161026 -0.345098 -0.367134 0.129445 -0.008685 -0.131493 -0.572682 -0.269531 0.133947 -0.095290 0.045620 -0.545538 -0.063410 -0.560596 0.215438 -0.086724 0.196120 -0.407607 -0.426178 -0.072724 -0.092627 0.039446 -0.040823 -0.019060 -0.393245 0.296714 -0.680848 -0.063270 -0.108437 0.506066 0.274303 -0.209310 0.380998 -0.555592 -0.010425 0.468427 0.200149 0.061292 0.061299 0.383011 -0.454581 0.121139 -0.563626 -0.130067 -0.365919 -0.071730 -0.085688 -0.277402 0.555058 -0.269216 -0.456168 0.031493 -0.347663 -0.706260 -0.056993 -0.245426 -0.199310 -0.432349 -0.047046 0.407788 -0.251154 0.031141 0.313821 -0.574221 -0.212915 0.256787 -0.385659 -0.401930 -0.198246 -0.222457 0.108913 -0.466298 -0.517884 -0.502823 0.107968 0.239650 0.209517 -0.048864 -0.493548 0.166594 -0.380963 -0.284922 0.335506 0.028775 -0.175119 0.320830 0.020081 0.701079 0.111795 0.022329 -0.192677 -0.016273 0.066459 -0.409264 
than -0.234733 0.323288 0.347528 0.257025 0.415590 0.565374 -0.409870 -0.690226 -0.570749 0.870573 -0.062396 0.048129 -0.598538 -0.822894 0.020152 -0.049777 0.609707 -0.291362 -0.698618 0.344303 0.008989 -0.012374 1.007814 -0.184262 -0.356081 -0.023229 0.511830 0.001001 -0.834121 -0.326166 0.141674 0.398377 -0.981160 0.003072 0.309699 0.325747 -0.254029 -0.276969 1.153315 -0.408716 -0.011772 0.298334 -0.185554 0.394653 0.635991 -0.216037 -0.647608 0.283135 -0.114281 -1.097925 -0.274874 -0.406265 0.052551 -0.368310 1.216624 -0.775971 0.223971 -0.311634 -0.146362 0.222528 0.236018 -0.210101 -0.601504 -0.470844 0.477499 0.037356 0.414969 0.056948 0.622537 -0.041852 0.465264 1.031639 0.175674 -0.068602 -0.013605 -0.254616 -0.181052 0.683271 -1.186425 0.351341 0.679016 0.130183 0.518033 1.167813 0.432498 0.571919 -0.453425 -1.010062 -0.016132 0.371094 -0.329461 0.389633 -0.201528 -0.341811 0.637418 -0.339747 0.044244 0.099820 -0.202511 0.028600 
state 0.029020 -0.665945 0.342503 0.322944 -0.309941 0.091890 0.328884 -0.175871 -0.144244 0.010817 0.244669 0.018139 -0.169722 -0.298414 -0.235152 0.714452 0.322798 -0.057214 0.563177 -0.061590 -0.789918 0.553447 -0.205650 0.064645 -0.252129 0.026372 0.186088 0.445106 0.128458 0.025616 -0.188229 -0.115912 -0.031475 0.054856 0.032644 0.039843 -0.364544 -0.374204 -0.194590 -0.070780 -0.020648 0.152734 -0.109591 0.117487 -0.337658 -0.049193 -0.305465 0.121024 0.137673 -0.010123 0.470381 -0.139406 -0.323541 0.017766 -0.355198 0.218277 -0.334063 -0.220127 -0.083932 -0.469611 0.099738 -0.216720 0.379560 0.163680 0.382526 0.379064 -0.258340 -0.003333 -0.077003 0.097461 -0.166165 0.273553 -0.175053 -0.349176 0.146285 -0.260183 -0.388194 -0.061776 -0.010110 -0.443487 0.081451 0.393723 -0.621197 -0.601300 0.344880 0.256759 0.428002 -0.002777 0.246622 -0.297079 -0.406842 0.298558 -0.171628 0.198752 0.508011 0.132756 0.011480 0.140564 0.183309 0.156950 
part 0.562236 -0.441372 -0.163117 1.129172 -0.103302 -0.140553 -0.339255 -0.081967 -0.493311 0.489567 0.098686 -0.044231 -0.991624 -0.376758 0.495786 0.401815 1.175415 -0.536531 0.304378 0.057635 -0.221438 0.268395 0.686058 -0.780041 0.840176 0.221746 -0.525714 0.778753 -0.167882 -0.025616 0.141597 0.407133 -0.702925 -0.720678 -0.160263 0.219749 0.293499 -0.156278 -0.495956 -0.530054 -0.454172 0.800625 -0.649137 0.513254 -0.172066 0.887238 -0.719291 0.082810 -0.550342 -0.007429 0.239370 -0.592743 -0.584153 0.114743 0.019961 0.119504 -0.031718 0.237481 -0.634019 -0.114173 -0.421079 -0.679264 -0.063479 0.416899 0.078507 0.401657 0.216023 -0.671242 0.378182 0.275083 0.059199 0.562484 -0.292049 -0.302965 -0.212780 -0.327679 -0.505340 0.506066 -0.614727 -1.166652 -0.081431 0.891943 -0.261058 -0.178626 0.858842 0.816212 0.523143 -0.345062 0.285286 0.833361 -0.250745 0.725375 -0.876940 0.287880 0.914117 0.551366 -0.633062 0.577598 -0.350813 0.086156 
team -0.138941 -0.450433 0.099918 -0.020245 -0.118730 0.230725 0.188344 0.090108 -0.057364 0.378040 0.200082 0.067165 0.094211 0.008701 -0.359881 0.282379 0.153790 0.083974 0.809662 0.146829 -0.410436 0.416659 0.135876 0.144421 0.045296 -0.114027 0.073970 0.060224 0.486990 0.176389 -0.117178 -0.241187 0.225492 0.281743 -0.182513 -0.167880 -0.169362 -0.366349 -0.179476 -0.019165 -0.046679 -0.063394 -0.175035 -0.184522 0.166253 0.077012 0.305256 -0.162205 0.177720 -0.050734 -0.056247 -0.138606 -0.055486 0.036749 -0.696332 0.139405 0.334566 0.174259 0.256886 -0.212627 0.083962 -0.204907 0.364919 0.293637 -0.006405 0.048370 -0.085543 -0.055689 -0.016369 0.285551 -0.047283 -0.108229 0.254253 -0.194606 -0.042720 0.138830 -0.505934 -0.185170 0.307996 -0.597979 0.207401 0.278786 -0.347208 -0.443339 0.251479 0.608014 0.507343 0.357638 0.209515 -0.377454 -0.373959 0.121503 0.003353 0.121485 0.329252 0.166620 0.021382 -0.011307 -0.427153 -0.204349 
university 0.304131 -0.490112 0.409924 0.633292 -0.267432 -0.127296 -0.048188 -0.358553 -0.259094 -0.371582 0.321184 0.042720 -0.594591 0.083511 -0.054003 1.001571 0.476534 -0.331718 0.885124 -0.195828 -0.769263 0.862158 -0.046619 0.034675 0.297178 -0.207134 -0.159305 0.810148 0.496492 -0.105185 -0.361259 0.129633 -0.310597 0.232982 -0.092003 0.068738 -0.183116 -0.351945 -0.676499 -0.238933 -0.252974 0.320977 -0.171224 0.324507 -0.327140 0.272971 -0.176823 0.021239 0.121550 0.358561 0.132512 -0.034964 -0.351652 0.035866 -0.772765 0.225184 -0.554209 -0.071277 -0.289964 -0.852792 -0.243529 -0.576188 0.789252 0.037883 -0.126577 0.497067 -0.093552 0.045605 0.287876 0.238598 -0.241776 -0.225937 -0.287460 -0.414921 0.204981 -0.182586 -0.498252 -0.505886 0.088425 -0.759694 -0.415558 0.641662 -1.067003 -1.126716 0.432278 0.580383 0.594180 0.324465 0.416055 -0.403304 -0.249728 0.476659 -0.491628 0.487378 0.713495 0.567060 -0.203961 0.365445 -0.168482 0.233391 
well -0.624660 0.007719 -0.047817 1.205814 0.523828 -0.609117 -0.054552 -0.298088 -0.682434 0.800499 0.100171 -0.851205 -0.727009 -0.078421 -0.085789 -0.363692 0.256092 -0.913631 0.103309 0.060210 0.184734 -0.139487 1.236466 -0.224545 0.643196 0.788950 -0.095203 -0.125549 -0.889311 0.391758 0.252919 -0.124539 -0.588722 -1.300032 -0.226559 0.067270 0.671700 -0.317143 -0.677426 -0.702603 -0.710512 0.485692 0.073179 0.241466 0.099370 1.177292 -0.749227 0.205605 -0.929100 0.307640 -0.654269 -0.674835 -0.569043 0.771233 0.993665 0.163950 0.003563 0.456647 -0.339440 0.088409 -0.511364 -0.651071 -1.029338 -0.116076 0.116774 0.285741 0.939292 -0.487408 0.371955 -0.247175 -0.842544 0.580041 0.007385 -0.384718 0.048041 -0.492210 -0.483282 0.150986 -0.681792 -1.610800 0.561789 0.735433 0.491611 0.869242 0.571654 0.999421 0.411066 -0.467900 0.148027 0.417476 -0.154980 0.503742 -0.293630 0.138441 0.303815 0.346569 -1.054269 -0.256650 -0.455999 -0.122099 
became -0.137608 -0.486773 0.714993 0.010353 0.376953 -0.304342 0.377373 -0.661295 0.614949 0.713032 -0.518834 -0.482154 0.376839 -0.064537 -0.110982 0.265011 0.491383 -0.421110 0.143001 0.298712 -0.239840 0.543946 0.233903 -0.072066 -0.107944 -0.020863 0.044586 0.023045 0.444616 0.298912 -0.238060 -0.303697 -0.376512 -0.071798 0.058960 -0.301748 0.037839 -0.804829 -0.845215 0.130229 -0.083312 0.423368 -0.942591 0.035848 0.088750 0.197110 0.001395 0.433041 0.260847 -0.119710 0.671171 -0.745215 -0.206656 -0.372644 -0.000554 -0.209622 0.723990 0.310533 0.269397 0.006379 0.038017 -0.440232 0.253820 -0.654862 -0.145301 0.519295 0.649410 -0.590120 -0.117270 -0.016518 -0.206855 -0.560271 0.040184 -0.275516 0.078699 -0.207526 -0.295164 0.056010 -0.328778 -0.545900 0.059285 0.054779 0.566437 -0.144028 0.290150 0.644953 0.034960 0.179871 -0.427584 -0.310275 0.526226 -0.285566 0.539142 0.803532 0.433976 -0.192921 -0.432912 0.654169 0.396680 0.805191 
second 0.166060 -0.595523 0.187156 0.019523 -0.509671 0.172554 0.191624 0.138667 -0.247071 0.062992 0.381338 -0.239220 -0.145997 -0.088060 0.187022 0.337011 0.558107 0.037800 0.491869 0.200336 -0.614560 0.479927 -0.158740 0.215508 0.231268 0.353791 -0.218699 0.116821 0.248196 0.534359 0.242199 -0.061346 0.235514 -0.004084 -0.294765 -0.105884 -0.065624 -0.503293 -0.949447 -0.017278 0.048166 -0.187488 -0.161020 0.018841 -0.179649 0.331421 0.342888 -0.078443 0.014104 -0.016103 0.078681 -0.318637 -0.365218 -0.002463 -0.618304 0.154507 0.115971 -0.145022 0.253856 0.107791 0.213834 -0.165905 0.578499 0.477816 0.155994 -0.080458 -0.006179 -0.066747 0.026388 0.184502 -0.030292 -0.073966 0.035533 -0.206475 0.613027 -0.165573 -0.461502 0.209032 0.220535 -0.615094 0.110159 0.490590 -0.524844 -0.253139 0.538524 0.453406 0.410353 0.208797 0.332731 -0.548729 -0.222936 0.082387 -0.052736 -0.124394 0.707517 0.485510 -0.071633 0.010367 -0.388883 0.013680 
these 0.188097 0.349268 -0.309838 0.318682 0.207158 -0.283186 -0.428889 0.099734 -0.795245 0.092403 0.445147 0.172291 -0.484996 -0.511378 0.550276 0.216503 0.180324 -0.168168 -0.084425 -0.441117 0.369202 -0.306847 -0.165749 -0.858738 -0.052682 -0.168542 -0.332608 0.053472 -0.258825 -0.147669 -0.156001 0.465332 -0.576373 -0.151677 -0.397849 0.402858 0.171247 0.410696 0.489809 -0.552017 -0.076650 0.546839 0.379413 0.002070 -0.052347 0.353227 -0.220614 0.005066 -0.596853 0.080937 -0.263634 0.400519 -0.073339 -0.034708 0.485353 -0.109902 -0.553515 -0.029877 -0.702597 -0.659184 0.155598 -0.056511 0.041984 0.011567 0.155843 0.199271 -0.262540 0.136928 0.502887 -0.110896 0.083820 0.203626 -0.513697 -0.160532 -0.295915 -0.297653 0.236374 -0.223286 -0.190075 -0.150488 -0.213228 0.173610 -0.274226 -0.348409 -0.532554 -0.227154 -0.415207 -0.427836 0.584334 0.326492 -0.177883 0.542310 -0.272332 0.536395 -0.272562 0.158609 -0.142198 -0.142947 0.122983 -0.554822 
season 0.231034 -0.591705 0.087864 0.061639 -0.064067 0.354324 -0.287468 -0.094654 -0.226180 0.577397 0.391598 0.420082 -0.465145 0.274341 -0.528836 0.631940 0.403725 0.015674 1.015811 0.548736 -0.317387 0.610120 0.508967 0.090402 0.414966 -0.494236 0.096719 0.229431 0.423614 -0.041151 -0.171851 -0.079633 -0.139735 0.231630 -0.127383 -0.273688 -0.309053 -0.293337 -0.058622 -0.312107 -0.219298 0.115204 -0.598624 0.108095 0.289334 0.149926 0.259490 -0.195077 0.213546 -0.111440 -0.339823 -0.009074 0.337295 0.165423 -1.106857 0.162868 0.371373 0.156186 0.216307 -0.542647 -0.230704 -0.411017 0.424218 0.031231 -0.118783 0.242265 0.082542 -0.042549 0.361111 0.778646 0.165506 -0.020469 0.433808 -0.029521 -0.352058 0.212706 -0.697115 -0.122059 0.184149 -0.454352 -0.148599 0.444586 -0.828599 -0.467589 0.450838 1.060992 0.688865 0.285517 0.353517 -0.405944 -0.395543 0.554107 -0.557842 -0.196796 0.626859 0.383778 0.117218 0.236641 -1.059938 -0.214472 
american -0.795395 -0.139657 0.185664 0.669744 0.002452 0.232147 0.496634 -0.079958 0.010305 -0.459954 0.189455 -0.163568 0.165802 -0.180857 -0.344932 0.375478 -0.139000 -0.155680 0.145482 -0.165266 -0.381141 0.398198 -0.051384 0.850978 -0.216123 0.758249 0.343537 0.344003 -0.189981 -0.113719 -0.005000 -0.326223 0.390732 -0.054958 0.181164 -0.197891 -0.453823 -0.012323 -0.373968 0.177327 0.059670 -0.147783 0.148379 0.147036 -0.104938 -0.221506 -0.270722 0.202464 0.466532 0.128228 -0.016766 -0.243751 -0.331175 0.321081 -0.133248 -0.025625 -0.601130 -0.008999 0.217713 -0.240550 -0.048340 0.203154 -0.074437 0.104027 0.130212 -0.148687 0.238768 0.145629 -0.009664 -0.232835 -0.699875 0.269913 -0.161170 -0.169365 0.360394 -0.216509 -0.387875 -0.280747 -0.265444 -0.564061 0.292429 0.153239 -0.337973 -0.149501 0.418537 -0.031610 0.392120 -0.307677 -0.258082 -0.288709 -0.147550 0.065172 -0.352053 -0.031859 0.300762 0.130808 -0.313242 -0.183684 -0.043364 0.349037 
united 0.082173 -1.173853 0.765073 -0.183693 -0.834593 -0.441093 0.486855 -0.536124 -0.147648 0.125507 0.496675 -0.425266 0.716454 0.531561 -0.076090 1.003551 0.336283 0.653940 0.950267 -0.444980 -0.655389 0.744110 -0.819801 0.799014 -0.350188 0.246527 0.262322 0.125699 0.243808 0.545561 0.077578 0.024639 0.399208 0.144130 -0.098536 -0.060459 -0.145239 -0.411997 -0.715991 0.438522 -0.233542 0.666362 -0.193774 -0.721586 -0.340191 0.671606 -0.211631 0.364084 0.376511 0.794476 0.695295 -0.044116 -1.164989 0.091765 -0.261277 0.733954 -0.446501 -0.720381 0.035252 -1.191915 0.097000 -0.124390 1.083939 -0.397990 0.687784 0.568110 -0.431656 -0.429412 -0.342644 0.248979 -0.812603 0.077669 -1.210854 -0.709482 0.039161 -0.729726 -0.565929 -0.383300 1.001705 -0.850515 -0.401358 0.248250 -0.557648 -1.365942 -0.066176 0.068875 0.872317 0.599498 1.030836 -1.273104 -0.379478 0.519358 0.549469 0.725722 -0.260241 -0.469384 -0.268295 0.539192 0.183014 1.141254 
south -0.273396 -0.508225 0.305856 0.603259 -0.430260 0.067854 0.192961 -0.073454 -0.521591 -0.312607 0.515857 0.429304 -0.322948 -0.169306 -0.459401 1.066492 -0.016984 0.236512 0.681590 -0.476830 -0.886199 0.651171 -0.315634 0.364252 -0.342461 0.095673 0.345278 0.667534 0.131428 -0.237342 -0.259727 -0.142595 -0.011455 0.527598 0.019459 0.167600 -0.446619 -0.007305 0.321964 -0.007341 -0.026682 0.147991 0.266631 0.038923 -0.382383 -0.094080 -0.345024 0.088776 0.329697 0.173569 0.058138 0.148065 -0.257547 0.537885 -0.447004 0.309996 -0.838124 -0.248989 -0.129330 -1.045101 0.207824 -0.101526 0.384866 0.306099 0.110534 0.403917 -0.495877 0.098858 -0.081040 0.044272 -0.343646 0.538321 -0.475923 -0.537959 -0.074151 -0.136384 -0.737902 -0.574218 0.327092 -0.492931 0.124593 0.319376 -0.727168 -1.186263 0.064965 0.235569 0.806243 0.181160 0.698786 -0.498365 -0.542159 0.556124 -0.256679 0.314663 0.412126 0.174329 0.184877 0.068280 0.059452 -0.066410 
before -0.266186 -0.284232 0.063760 -0.252061 0.049066 0.253768 -0.248959 -0.140047 -0.183260 0.801046 0.252987 0.175487 0.090510 -0.013212 -0.067787 0.148134 0.361971 0.541440 0.043675 0.383877 0.021046 0.154366 0.036664 0.146964 -0.203535 0.152674 0.045492 -0.264752 0.171347 0.282020 0.194908 0.194704 -0.276396 0.329358 -0.346737 -0.016590 0.033603 0.034257 0.297480 0.176353 -0.029101 0.345085 -0.191397 -0.212201 0.422482 0.097350 0.344758 0.136779 0.103614 -0.270638 -0.031034 -0.079604 0.246168 0.043527 0.007262 -0.204077 0.380702 -0.057299 0.439699 -0.174182 0.397598 -0.062512 -0.021309 -0.143502 -0.127255 0.102948 0.177412 -0.341541 0.132410 0.227394 0.281939 0.159693 0.185165 -0.218800 -0.176403 -0.047525 -0.514059 0.322791 0.007088 0.026008 -0.113012 -0.064201 0.251302 0.125693 0.003661 0.384733 0.143180 -0.071015 0.491981 -0.353702 0.036654 0.099191 0.239636 -0.042004 0.062782 -0.176685 0.084126 0.127300 -0.285722 0.066991 
born -0.238326 0.059462 -0.088204 -0.135456 -0.133486 0.785917 -0.566109 -0.105159 -0.322383 -0.459886 1.040880 0.258297 -0.411845 0.180848 -0.083843 0.322343 -0.083048 0.089649 0.667520 0.247985 0.591837 0.240817 0.735067 0.811877 0.623130 0.157760 0.483696 0.179265 -0.080971 0.078654 -0.052556 -0.019504 0.012789 -0.008573 -0.491561 -0.259237 -0.072533 0.082496 -0.283905 -0.362076 -0.586350 0.013318 0.059703 0.030303 0.645856 0.486621 0.559899 0.232108 -0.490314 0.033538 -1.487260 0.447275 -0.068423 0.635808 -0.308082 -0.001650 0.222523 -0.440652 -0.195990 -0.173972 -0.492826 -0.268196 0.143667 0.187713 -0.448856 -0.694366 0.526030 0.049716 0.684307 0.726499 -0.496463 -0.079783 -0.124081 0.225535 -0.389337 0.088699 -0.526835 -0.496248 0.300274 -0.854014 -0.197565 0.323309 -0.242448 -0.427941 0.317340 0.756816 0.839207 0.212135 0.528868 -0.410221 -0.345102 0.320312 -0.472955 -0.529077 0.014529 0.007874 -0.871141 -0.162031 -1.414564 0.028288 
being 0.497625 0.110048 0.133879 -0.032541 0.541149 -0.020460 -0.313576 -0.380480 0.128779 0.518093 -0.056326 0.042903 -0.253518 -0.093145 0.158988 -0.192299 0.283597 -0.595933 -0.321755 -0.038407 0.013887 -0.363800 0.471634 -0.829758 0.141870 -0.383009 0.028885 -0.192323 0.128292 -0.060113 -0.179347 0.210328 -0.566656 -0.649196 -0.031140 0.208282 0.216765 -0.190164 0.085522 -0.434553 -0.278874 0.312701 -0.629820 0.085093 -0.009650 0.336486 -0.256498 0.156984 -0.642070 -0.282568 0.040549 -0.041218 -0.395777 0.117966 0.494539 -0.039129 0.418320 -0.051416 -0.604260 0.099137 -0.317407 -0.107201 -0.346995 -0.268527 0.241654 0.221864 0.092753 -0.276740 0.187904 0.109723 0.241033 -0.065132 -0.521309 -0.205410 -0.403093 -0.202040 -0.041055 -0.093387 -0.097789 -0.667769 0.060771 0.198248 0.547219 -0.027103 -0.176786 0.395808 -0.063496 0.115157 0.072996 0.413780 -0.403535 0.184250 -0.136635 0.588345 0.110898 0.061734 -0.414643 0.278616 0.144469 -0.035262 
film -0.059526 -0.245563 0.029435 0.102344 0.229659 0.071068 0.273661 0.068006 0.145831 0.452445 0.067371 0.262711 -0.345061 0.097769 -0.390707 0.506930 0.333337 0.079005 0.688046 0.449725 -0.220443 0.251233 0.329508 0.048548 0.513922 -0.068467 0.010492 0.267814 0.301680 0.111331 -0.062000 -0.163841 0.211503 0.038514 -0.037248 -0.340669 -0.044102 -0.052880 -0.340583 -0.190947 -0.232193 -0.119217 -0.450816 -0.046394 0.303514 0.018061 0.125898 -0.067722 0.195465 -0.046979 0.099567 -0.250851 -0.201515 0.140033 -0.723005 -0.120575 0.312462 0.305029 0.122453 -0.344059 -0.295285 -0.017739 -0.037480 0.129796 0.146489 0.131172 0.470886 -0.165200 0.201270 0.403151 -0.265919 -0.128810 0.395219 -0.005202 -0.253071 0.024279 -0.400213 0.020813 -0.231338 -0.693809 0.168677 0.389849 -0.243539 -0.167481 0.300617 0.474530 0.137459 0.133904 -0.128646 -0.155628 -0.287719 0.191262 -0.490913 -0.042268 0.409691 0.412415 -0.267151 0.213537 -0.596480 0.100399 
